{"layer0": {"weights": [[-0.42924983009423084, 1.142199637701025, 0.602542807438985, 0.5669569029381634, -0.866596078331309, 1.403258857804916, 0.36418800268360246, 1.0206272210211926, 1.3209633235081846, 0.5715314155740984, 1.6364612168859307, -1.3230595991577856, 0.3334280764481512, -1.733476029722413, -0.3778818045653281, -0.5024111154458722, -0.24153268984139253, -0.43625859231448005, -0.7710401581942663, 0.42069265456852517, 0.32206388913564843, 1.0577870038347628, 1.4282736784278967, -0.906096976062814, -0.41031874237141364, 2.062491034813756, -0.3243270097974776, 0.9255924067817247, -0.4935549581341109, -0.9506031343778959, -0.3815361615336622, -0.6870782499375765, 0.22628220884398667, 0.5253763690037487, -0.36744531021166893, -0.9099299541177811, 1.924301744103632, 1.2515098923937773, -0.5954205454243596, -0.37959314387023213, -2.7554058251895226, 0.8717891495118435, 0.5063472865969766, -0.5764223549970122, -0.0825285817688957, -0.1302616337412199, -2.164722256292809, -0.10143970697033863, 0.09686195613865584, -0.09524623593601733, 0.5810414197397465, 0.8475556964848607, -1.6269408359409336, -0.6763201823748856, 2.2688528262661243, 1.1499282438949072, 0.2914128833211815, 1.1067368830461168, -0.8134360154432998, 0.3406094024614321, 0.8213504332865855, 1.134579418532618, 0.6206386874385585, 1.619168932738432, 0.5104461040474141, 0.9342335076969037, -2.0779976819324415, 0.4172386488109853, 1.463439499628942, 0.6065329077019892, -0.38097686741678355, 0.4150408129335336, -0.14741703223846375, 1.3226613614217944, -1.5014372359931931, -1.1372765576210022, 1.326300179366088, 0.9353234271061058, -2.1892224655639887, 0.7800606179704597, 2.479196498407319, 0.6276820620076, 0.9214056479423686, -0.46069419262082256, -0.3713131596822441, -0.6564641218487898, 0.3179580524991392, -0.6502986351337005, -1.6736125505735744, -0.14370214055453565, -0.5968744766703697, -0.24711616451788626, -0.13793471728367157, -0.4071636297462947, -0.49513399564149874, -0.10262200351296576, 1.3398049218779793, 1.0914232386268117, -1.1397631762844365, -1.5189149201164567, -1.3698035181072612, -0.16524713516437545, 0.50985498854255, -0.8337314440124693, 1.7612627237565628, -1.1090539505357577, -1.677048443177295, 0.1894566584748417, -0.18488865296283907, -1.1627803577236773, -1.088855340786992, 2.173984203148305, 0.330310285049368, -1.4898823944958537, -0.8854731567131486, 0.2373888465834302, -0.31309531197832685, 0.08595262511451651, -1.1898620982451287, -0.5624897548624802, -1.9846893745345462, -0.4666337118555487, -0.3457317757770534, -2.0750017406835504, -1.2117879922692267, -0.1518898942905655, 0.28431886376072474, 1.3768465082537464, -2.1357988807307176, -0.6326154979490712, 0.9612149974631158, -0.9889001304022065, 0.05923361205690997, 0.999073167155756, -0.46651124974278957, 0.022525838943194383, 2.0447701892533625, 1.2929753374105195, 1.6772721851223906, 1.247083773884876, -0.6986100454743928, -1.2908351570512682, -0.3250913047003425, -0.2780142777625538, -0.41021478691908136, -0.4342924393369073, -0.6717350119030021, -1.5333440502055864, -0.7055812415529138, -2.2058081738787614, -1.2848344580880604, 1.0972217441030816, -1.9679069410927326, 0.26286566242936454, -1.4978778182794779, -2.1848145699124517, -2.4298913103240527, -4.275931008238634, -1.6667485277355003, 0.21413817092027995, 0.35801431964696556, -0.646505051960672, 0.17544285133192, 0.893369902360019, 1.1556684113344282, 0.5069271503503346, 0.7136019382125802, 0.6851633578224866, 0.22740910948752757, 0.2899288318798693, 0.6915722831041762, 0.1275584957423231, 0.34851013953799376, -0.947964068879635, -0.946082435404531, 0.9616653176466428, -0.8497042095579617, -0.24762481345056536, 1.558645644268058, 1.136562269617148, 2.221303788276477, -0.27841126384488873, 1.84829501288617, -0.9730386913882427, 1.653696733213417, 1.3648122561814973, 0.2530638214225169, -0.7485208681805139, -0.4952891923615388, -0.39889143675971556, -1.8266678109762355, -3.769896661581733, -0.5423956226979636, -0.7815541767648474, -2.269066924054036, 0.006488600299594018, -2.368047336043381, 0.9165831833212028, 0.19045456166760413, 0.7053900621199009, -0.503610844390974, -0.8018592482761716, -0.535341756792269, -1.1962483624536226, 0.7799214874835871, -0.12338476454104541, -0.47642730418070867, 0.3174573630015614, 1.0770644174724326, 2.1110778310667655, 1.8304500364033787, 1.2526153531181579, 0.6895192913282324, 1.1084136320897275, 0.07827944116357273, 2.1016923585335645, 1.6631853875885807, 0.49286173806355227, -0.06110281954860188, -2.637613209631668, -0.8205821493456131, -0.4818088256471393, -1.8986294332891125, -1.172332778693801, 1.3449202501027981, 0.6906321329437207, 0.27279182401045576, 0.46026148733011385, 0.20062695321234417, 0.34470888952694295, 0.1294271693046612, 0.6572821410593781, 0.0481458400794062, 0.3861968861505059, 0.7575903857197074, -1.036830850112669, 1.3829615927794554, 0.602978277287418, 1.2932457733893388, 0.5200727786396327, 1.5962860540025638, 0.7593009477838043, -0.04499666765844834, 0.5113550756790798, -0.768460615837899, -0.8697123379544736, 0.07571542075131239, 0.39963354168894183, -1.227880809927204, -0.48300227286262243, 1.3490250092814495, 0.9456208926612099, -0.8071679590982617, -1.7881248678359118, -1.1705187355678295, 0.7218374680547118, -0.28939316902724077, 0.8500511102619545, -0.48190547113859816, 0.39416854497521153, -1.0554925939435256, 0.7572659237878947, 0.5850796586624148, 1.1445410673769245, 0.536236200477313, 1.0102685213362887, 1.1561907462482168, 1.5738925217913928, -0.5779279811885231, 1.023029394869298, 0.2395225826238202, -0.634368847814272, -0.817683146389862, -0.5343995402204076, 1.3627048660309002, -0.8876230149535465, -0.1949650348571098, -0.8817664713409139, -0.7403379508832281, -0.4914641944123808, -0.6975882554115778, -2.2132682447015757, -0.21919509626741182, -0.03739931011722291, -0.9351683959604165, 0.4042826186898289, -0.15992193100179314, 0.514403456205699, -0.2707376247654573, 0.04025657798603269, -0.7015077852946942, 0.5195627075689707, -0.6027905515232623, 2.596502580107026, 0.9438025703602145, 1.529629002847817, 1.9378788121726258, -0.4075153564602981, 0.35500887728078084, -0.21872562470764778, 2.4551012702173574, 0.5433648145963079, -0.281153393598455, 0.0942585538380189, 0.2143494855745481, 0.4598295947801536, -1.237978410549284, -0.48203196176899576, 1.596985351315804, -0.6381914318245387, 0.8850734676495199, 0.16206230509421996, -0.38311047698556877, 2.337748071637424, 1.6648619773344877, -0.6922706167979653, 0.6913502540585529, -0.3803548207919224, -1.3761278514167683, 0.6958312203518058, -0.27582022474306817, 3.6919147878737975, 3.6044116923803244, 0.3561292887432368, 0.29973503231574733, 1.0600937280103084, -0.4192816671600415, 2.111189087907976, -0.3551530354476242, 1.5534937046444717, 2.493142217739765, 0.8262222353879157, 1.3161802872387593, -1.1370904609794583, 0.6623297923692774, -3.0396053214800354, 2.302435762150862, 0.9429829515918056, 0.4156225089827491, 1.3877496900704693, 2.4953981392156894, 0.6177688352166556, 1.3378462863160827, -0.4599205144609606, -0.1003293267975297, 1.327070600033489, -1.8289752624379696, -1.944526346280411, -2.2300498298858153, -1.0101622874157599, 0.9693754401267457, 0.24440832207560706, 0.4559717262806438, 2.3412391164777415, 0.5401392358248519, 0.6020450909728707, 0.762313688768344, -0.4835864828546667, 0.6027290681258901, -0.30823372674307703, 0.01072268596818203, 1.8393016267116276, 0.18948202375090634, 1.0012840898969764, 0.8839695966220783, -0.8447485666883341, 0.1393503214496951, 0.2222470461983638, 1.2302975089035921, -1.245623968354607, -0.6995787021744132, -0.4068841087627177, -0.832016361193537, -0.9870313388793442, -0.7580762918343075, -1.2466674209047532, -2.0517839843391306, 1.4465196209553794, 0.2798326551704444, -0.5090030943743739, 0.5510063926276433, 0.2356786282019368, 0.17808512861854128, -0.3677989564021105, 0.9796908576804748, -0.5394837216633515, -0.6102413566156383, -1.0063329450654663, 0.18052238790154848, -0.36176220319601493, 1.6236391973818445, -0.48879566738139385, 1.158362915217008, -1.618736773917628, 0.6059263943216439, 0.6196642041010599, -1.251506344604166, -1.6774751038122568, 0.2041815666782844, -0.35100088181500444, -0.5057552909097095, -0.9920028076015515, -0.3805331146806735, -1.9943484991317113, -0.2750568765149894, 0.08804719786508519, 0.1824681956026695, 0.2744543054259946, -0.5018340371648473, -0.07280778676519027, -0.036274408277273545, 0.20661851816947133, 0.0421096819032435, 0.6969382914136122, 0.4037932350523364, -1.528919390028107, -0.713221552936367, 0.6790146203071679, -0.3760623604420861, 0.9737431106226947, 0.6450973903752166, 1.0669648193728656, 0.17219567577474587, -0.9696041751617683, 1.2270751099797361, -0.4841995606342382, 1.9204242477247628, -2.2437184267914803, -1.1986166613221234, -0.33355495860483625, -1.6825256943932592, 0.5193885484118046, -0.8455859290081248, -0.782563391203553, -0.9743846130243767, 0.050526654521429626, -0.5367749244358898, 2.13039242887017, 0.4085728562755978, 0.6199083695482268, 0.00931096709103725, 1.4883683317190013, -0.2946604266068027, -1.5879374365455132, -1.3594338602278, -1.6404518217383859, 0.5398542343681888, 0.07182576278414157, -0.08041441845893345, -0.6244398357583214, 1.977338053587542, -0.9250994101412174, 0.6759912433974561, -1.3249717363532452, -0.8248562456554974, -0.15300067835198244, 0.6538647456550266, -0.8130805995647868, -0.24551991586072763, 0.6619401805497976, 0.06131395354066019, -0.6104526901884781, -0.5052009795691288, -1.3382533360196658, 0.19715092845570525, 0.15692342032942724, 0.2060183203327647, 0.00683806579619641, -0.8558043502824704, 1.5512142199915018, 0.8798079537738253, -3.8148773798978235, -1.8640655168623532, -2.2359271945959804, -1.7057746453941824, -0.3728753338944546, 2.9061374300901424, -0.12010614627266582, -1.8294143695754894, -2.3039677889690466, -0.24693498237678244, 0.6414074481012758, -1.2986021406994226, 0.3671303017879799, -1.408749120805679, 0.4463108500484793, 0.028279357851306777, -0.9483146166872939, 0.9394739325287934, -1.3235339707298541, -0.5785989600386406, 0.34194264158333076, -1.2687471134643389, 0.06348548156378704, 0.396359378094962, -0.2294945388409622, -0.4435072414049251, -0.7547306761143816, -0.33400567423161914, -2.3523514216743724, -2.9513569410104865, -0.7780382351680349, 0.7117345933916939, 0.6110594519071517, 0.4522058387877561, 0.5942626328801728, -1.5009755650932137, -1.1163751374061621, -0.8074971946583899, 1.158647021444567, -1.4651026330157624, -1.2222878796412175, -1.23008473280365, 0.26678473077406284, 0.24573469039239337, 0.0944721730347993, -0.28017805048475775, 0.36356067617592713, -0.014515123711939134, -0.3395188518615604, -0.6478873453346352, 0.10025222227361487, 0.40859851441340994, 0.924789136640466, -0.9419314194269715, 0.641864796027896, -2.4785622393995217, -2.9910838977646317, -2.1960325775005685, -1.5575209704569681, 0.23927032494474318, -0.010697388755643283, 0.9551766236250513, 0.6276903142112783, 0.17880635367925016, -0.2138066893669701, -2.0750774757802053, -2.144070218246217, -2.236236160973154, -0.5697721246753583, -1.116661500417688, -1.5451670194794158, -1.918376488800446, 0.17081877063187656, 0.7766866070290122, -0.3304080289785839, 1.0228907073031244, -0.7726312236640135, 0.8164997310341361, -0.16406048964019723, -0.7850758004079827, -0.025412701093585094, -0.03468859911781572, -2.2215548482587826, -1.1018423928836494, -0.8162554574648412, -2.081151108304989, -1.50253909538215, 1.0984711504808393, -0.3764213213668121, 0.03218257208518854, -2.0024552558074316, -0.22900681938430525, 1.3515806042464058, -2.7561425327705935, -1.0944995072705526, -2.5508643185567177, -2.35061113855192, -0.229947218373256, -1.7916985245808896, -2.735354662460145, -1.567490547418027, -1.108234602455917, -1.3025530569253885, -0.28911757589399173, -0.7024041069137217, -1.6458902382452811, -0.9238908052819976, -1.222641689238442, -1.3051974136636832, 0.3114415027717719, 0.14964820492050546, -0.6123230002200998, -1.4185571136379977, -0.05843772667839092, -2.266339818042298, -0.030289760022086745, -0.5526421315965258, -0.7633172745947018, -0.0634432679270115, -1.9984455969161037, 0.10582047813393641, -1.2706954165646245, 0.005460529295300705, -1.4999590738398958, -4.469193442267895, -1.8981974055870194, -0.3271133599654942, -2.060644006225664, -1.139316127254534, -1.9457286079548517, -1.2607605988483261, -1.285400885269966, -1.6530866802666067, -0.3482795175805662, -1.1750638435927285, -2.061365665649991, -0.2784200951576807, -0.2947122562747007, -1.4882416095151005, 1.5436617325858295, -0.9705046918986615, 0.5268720185806065, 2.484310823341974, -2.1085936137280705, -0.393292329738449, 0.5763061521199437, -0.47490299077522885, -0.33043870442301987, 0.7348308512354388, -0.5859080257383192, -1.9621634812659305, -0.8296272920959065, -0.7221047451451775, -1.0176309187314618, -0.4542666067629994, 0.6429251458102896, -1.456962689458914, 1.492498655222945, -1.8838364252862556, -0.10526996363389741, -1.5033940126032526, -0.8171911321524993, -0.1735849428776463, -1.1758035729290832, 0.06335690752428816, -0.6881543408786793, -2.1132151421965446, -1.7611216804495007, -1.102608244674604, -0.7985458004054621, -0.12816220350298882, -0.32202160459943024, 0.32906313477348775, 1.8992036427856087, 0.613831782742626, -0.9450524038156478, -0.35839881807577606, -0.6501301129071639, 1.1770321106165516, 1.7888628670581028, 0.4015614661577915, 0.6473916921874926, -0.5254911095943999, 0.5598461571635759, -1.9959180596088202, -0.1330522254061045, -1.2043807340193253, -0.7023730618544327, 0.9530505545568455, -0.6533877573947392, -0.7130160190892486, -1.2662356359599698, -1.810964064840718, 0.47440484977128416, -1.5543600473397612, 0.6934216021173675, 1.0079644102453456, -0.2548269834361062, 0.9592752464256346, -0.5108731936789185, 1.398534157104742, 1.1172930575947373, -1.4997783278841057, 0.22624538349240267, -0.8622666422197326, 0.4909852275615005, 1.9100641356690706, 2.188468220397458, 1.1281206869438138, 1.5859836189236494, -0.8309559612107751, 1.530236667557275, -1.2049339878851888, 0.7054804932297382, -0.34048768182515615, 0.9364923971870209, -1.2265417318058147, -1.0141931490068727, 0.5658111295968047, 0.19519222923002386, -1.7593551148202, 0.6937702601368301, -0.4919051980768596, -0.012867189594675105, 0.009554708875368228, -1.751117765726695, -1.2190931795547353, 0.21963613902663245, 1.3476563729756972, -1.1324570862361985, -0.5792538475416086, 0.25906442277468184, -0.4459234645966901, 1.1746134194992908, -0.3712576853322561, 1.5602187165843773, 1.166388166646705, 2.656581020868759, 1.6276212090906346, 2.096006723617101, 2.173453585598382, 2.1287641925915803, 1.0474045425381537, 1.452944126353536, -0.48516916947748046, 2.709976680064912, 0.60725791292026, 1.093297409180503, 2.4348152908459704, -0.06556439280547885, 1.3729543043469976, -0.248999103913612, -1.0339795173644084, -0.962834348868435, 0.6219853861515089, -0.46947053734930083, 0.7590093841283345, 0.2751969011465738, 0.10685158352620486, -1.2371363379687597, -1.0347989237412578, 0.8067265723090795, 1.1134492606740538, -0.0837286783288934, 1.4294440051984674, 1.319019522865409, 1.3164738718234221, 0.9574140300554138, 1.3153395421585852, 1.0451875641484871, 1.8754836929357392, 1.4708436754774925, 1.3330844905717487, 1.3433932535842812, 0.9741111555362155, 1.343887771763804, 1.9230579606253206, -0.7573271275620552, 0.9703306270258326, 0.5975206243246353, -0.3035287945733496, -0.8217195849240985, 0.06614198392439369, -0.46128078654899907, -0.06423492418971113, -0.009548582396113989, -1.4769796996238067, 0.36700943897795424, 0.6494566971753262, -1.0073138834887099, 0.1906961984550082, 0.2984418507506604, 0.981095750904667, 0.19798698595152078, 1.3286034653300576, 0.5187188899893727, -0.7064635461621029, 0.5919475290536319, -1.0049975225668675, -0.05796692042889919, 0.2801210322372212, -1.6559925283102346, -0.48259688697067216, -1.108734798218982, 0.9397554919994269, -1.1251971651107258, 0.6855704309752131, 1.1833842532463545, -0.9464045193479245, 0.5252291926660432, 1.095979603708874, -0.8287097695356762, -0.532870813951885], [-1.3595102277576228, -0.22777609362594164, -1.4470141859475352, 0.03880571773678797, 0.2701005873469185, -1.409909885362393, -1.015892109780141, 0.07547731434659057, -0.5542160628279754, 0.9215612874195326, 0.11825776411861039, 0.4132888153264186, -1.4392893720863735, -2.155431188939, 0.8581623776123612, 0.7893817756150557, 0.9209952117099686, -0.0057868558172394415, 1.0319725111635958, 0.644404256065913, -0.7117022168752666, 0.9535769505888495, -1.8112129200264857, 1.150806434149884, -0.10021753963298588, -1.8265674186071499, 2.470889718702229, 2.414907915026535, 0.41536805742796545, 1.0670967458144898, -0.054273183377984216, -1.6566809629888497, 0.13422604544935948, 0.9169302232167316, -1.3509586584673614, -0.526777035240363, 0.5825669227959921, -0.8172308349448127, 0.3544766390040897, 0.2733629067703876, 0.0010434048689986811, 0.6089281635604038, 0.8405551193665922, 0.9890215307470432, -0.0036712448040736117, 0.8204747937028872, 0.7886746203063402, 1.032700144148328, -0.22998758283208495, -1.5690219399185799, -1.1911182938775322, -1.265112335694955, -0.7247450930450189, 0.6643922026766718, 0.3595668539481049, -0.17653701691905987, -0.5742825175435938, -0.9846037313150514, 0.14459368753638485, 0.8622993481806859, 1.5832719621428974, 0.03660324656764002, -1.3667935473919006, 1.311043969907645, 0.39171554333324426, 2.2843104221647366, -0.9052902086158537, 0.053249855536368455, -0.15198044520837897, 1.2454006396126651, 1.6857982061910277, -0.7520988241813078, 0.36393072921181896, -1.0712431786972094, 1.389743075754384, 1.5820869688143289, 0.7712313718787045, 0.21441478727121535, -0.03669783154314726, 0.34674165095279946, 1.9629613128420762, 0.111633243033924, 1.0389793274115138, -0.5070823155232674, 3.2157726822717474, 0.9643915764089827, -0.6039004379424242, 0.030274908977223566, 1.371332925275274, -0.7441614223759478, -1.476565538640242, -0.8897284674149085, -0.828402943294595, -1.7890603705835975, 0.153745515006396, -0.1978178294731754, -0.2543545126836204, -2.0646577680824247, -0.7242686958469854, -0.5042256899339564, 1.4850120533637192, 0.414185756033066, 0.5453583260455938, 0.5284211427111202, 0.997676055219368, 1.9658702181704841, 0.7183521034324474, 1.2524259520784122, -0.2500226981345972, -0.4865160663623633, -0.2173760268867646, 0.5698199479671385, 2.040284135555692, -1.7152431264472858, -1.01970102630657, -0.4161806053306282, 0.7653175046398832, -0.680890699828538, -0.35079991218340745, 1.3579761297511428, 0.5212504234923215, -0.834136482800232, -2.380013847827359, -1.254490149207371, -0.17078420383991674, 0.7266121257429842, -2.6430346868809584, 0.4151263744278843, 0.25629336964334226, -1.1292300801108437, 0.5811458832841442, -0.2196369714607816, 0.48713866311747783, 0.48734588369049675, 2.8111479622238313, -1.0676459817404604, 0.8059710852123723, -0.3918504527426381, 0.03289276275972203, -1.3870700450922826, 0.7691809082189054, 0.09101988595800549, 0.042630409009735006, -0.6840824120592464, -0.054941557901430876, -0.9343950735496417, -0.4792760332218642, -1.2068783796566611, -0.5774639917500688, -1.4305534160609745, 1.1752284691810189, 0.10474832731104555, 0.30309509852545846, -0.4937975344194542, 0.10945018201645709, 0.4268431085524985, -1.488593089452955, -0.14270809015122793, -0.009499181631146773, -0.18043331180924035, 0.15572636585780142, 0.8340790310619692, -0.16340901124689183, 0.43781405211886804, -0.4429175428247278, -0.6037244151269426, 0.2281657885139369, -0.06638437049330774, 0.9414068291400338, -1.081425616808522, 0.47031812746250423, -2.197275104158835, 0.07692979960965766, 0.4118762758037747, -0.28981184036023744, 0.41209695657356576, 0.700950703485147, -0.040491271567837266, -3.085803402733207, -0.2848849882295518, -1.410314797410551, -0.8628178253550611, -0.5613151266920468, 0.007467631230257224, -0.6742550868313245, -0.8085744542982201, 0.4914509498157337, -1.0411336065119674, -0.9431713310864526, -0.3168991712744085, -0.7471342073719676, -0.5722293766495679, -0.18627810111998586, 1.37071895095601, -0.9802598347097422, -0.6995696764717109, -0.11588124479902315, 0.5715119335879533, -1.2577566084055747, -0.44369888806768987, -1.448985081247047, -0.8894679114875587, -1.0858296487617778, 0.13432103883150984, -0.18059821383169783, -0.026005634529684962, -0.9097455916944217, 0.37333206933801893, 0.3418699523610794, -1.4569017487350937, -0.11871811017616064, 0.011011624564711825, -1.4200543031150894, -0.4975058751592917, -0.5124887976771356, -1.0106441617114095, 0.1331813971372761, 0.03264110851504591, -1.04214763320953, 1.4583288146494489, 2.4383809610666303, -0.8329987121940007, -0.7653020119752263, -0.6173506379240475, 0.7762087352648152, 0.439522722806509, -1.1590310681464862, 0.4606463353241104, -1.618119624158015, -2.051542869481967, 1.0241015127967235, -0.9843044621094823, -0.8635408268669289, 1.0400413620649505, -1.4321483502083936, -1.659761889753342, -1.3056942077933669, -0.2387200656451461, -1.2804389175751476, -0.3817015583246061, 0.18454212696210157, -0.04932475860797353, 0.9519488731845012, -0.6276517820219326, -0.5104411914527189, 0.4043995969791099, -0.24749077155156046, 2.048932487220479, 0.014922100400832828, 0.8513939463250146, 2.8516033773605245, -0.5459775493831337, 0.1750346750611889, -2.3661019305131727, 0.8808911982766776, 0.6774867716013142, -0.30466608636961845, -0.3095361336132144, 0.6852929378702366, -0.6771578658180386, 0.35849425147216196, -1.3334117232114706, -0.5375197549235426, -0.4239441731530582, -1.67720347001182, -0.25450604020638584, -1.223525499937295, -0.9634947264950134, 0.28923969493209334, -0.7926344682142668, -0.20479199080287783, 0.7488168532009509, -0.6535677585099878, 0.3728449650704671, 0.2283419008173854, -0.3336273582913862, -0.1116243583929392, 1.1165758329277233, -0.4119142963487729, 1.3379010393872437, -0.8089150372695818, -0.3057911161375072, 0.03372899960403492, -0.9237817774436446, 0.5259273336680569, -0.37096180644852095, -1.0759114679652422, 0.6854029140685689, -1.597087550987986, -1.0270448135650094, 1.783484421301178, 0.33466294906093735, 2.016400672882635, 3.3965306584547816, 2.6589052328611147, 2.1777783748176014, -0.1948126149809076, 0.4146654870399439, -0.7550258488062312, 0.973181850515195, 0.47189191009601433, 0.015731990932514248, 1.3311425233539436, 1.055387295708979, -0.49126714080673345, -0.39400437835561364, 0.2996727919417734, 0.8732929936626379, -1.6975994592040002, -0.6437159233480572, -0.3011291499950349, 0.8022242376050973, -0.4186890525725315, 1.807955367076993, 1.1254569264247047, 1.6024579527153942, 2.2976099012042686, 3.6997517883097473, 3.2819493131421327, 4.614431560717121, 4.476144072423161, 3.822339479223119, 2.143071171368636, 0.6327925151214887, 0.09050139537345929, 2.1033651600586714, 0.37916117230924384, 0.6524573123334758, -0.6599569777682254, 2.413538181813362, 2.284599074707921, 1.5395726476399123, 0.13329542483808846, -1.9248761673233266, 1.5721864154403895, -0.9229800602713261, -0.8790337420030699, 1.4498892217996773, 0.8841353436895371, -1.2872288063994324, 2.458643505705635, 2.2345591011866817, 5.4336817547492755, 4.725975257652026, 4.592052802160722, 3.2022416070141424, 3.2970672394061413, 2.384478760733194, 1.5695034626653452, 0.21768332772621807, 1.166955579432491, 0.011614314496581426, -1.2884115355868158, -0.21553532836800415, 0.8330698812318016, -1.5496383937168972, 1.4529477591778772, 0.27659593708073577, 1.8217367025479414, 1.5178791986425846, 1.097167437198397, -1.182791001819818, -1.256421506888495, -1.3521343368567456, -0.6096249701847125, -0.4116170217476642, 0.45630097435705136, -0.4480958101270613, 0.5230823052129419, 1.7955504609522162, 3.6229356622317876, 1.7586960415657809, 2.527985764700866, 1.560317669677167, -0.10320313278679978, -0.6421127659181165, -0.2823712323546716, -0.7463404951325239, 0.4890897736906246, 1.117078124059729, 0.9374971462843674, 0.12775732767805295, 0.36775424800857787, 1.0037008911939302, -1.0599236078094307, 0.8516780553469372, 2.468946543895338, 1.855047892909317, -1.7625203407275074, 0.5728216861558187, -0.47084310364069415, 0.016542772697991603, 0.08738631313312788, -0.29482146853660307, -1.302028322226996, 0.0006496030416538547, 0.43721969974827446, 1.7826012262606319, -0.6823849661586159, -0.135701698258873, 0.19702295270253356, 1.3731476923982169, -1.5480256703868605, 0.3294540957595234, -0.4990707149955635, -1.2492063984304271, -0.9333304134456768, 0.7907389877422816, -0.6444747674106482, 0.9762906210204108, -1.4527413354711811, 0.5331330585931966, -0.14818754368035272, -0.10528505914703848, 1.7442416386909494, 0.9775123346526322, 0.5406919678165438, 0.17467005630405819, 0.14163888001547317, -0.4832335095923384, -1.5268821785417774, 0.5748880520886775, 0.5392859946634123, 0.7177616332786421, -1.7136526377011532, 0.5689453190105319, 1.6849401761916853, 0.3024225097485635, 0.33171572920790515, -1.5009042291566792, -0.32469679481424013, -0.02358607295651405, 0.5414955703462276, 0.1561017205793408, 0.08384764377553512, -0.4151997510648895, -0.3450427767901979, -0.012592380429855178, 0.15876647214015452, 0.11398484799301581, 0.9394836257464612, 0.5206351510678057, 0.7623278122234869, -0.14933451416023624, -1.0548219183359602, -2.051355703736945, -1.7013105249160705, 1.8099595768654522, -0.03146192519045674, 2.060350003908119, -0.09278317018799755, -2.13237977337086, 1.3205238858353803, 0.6303610634021521, 1.212609509415261, 0.5588651861542713, 2.004485140111514, 0.5193701979545626, 1.2734756525562192, 0.7640943944312629, -0.8143180518730806, -1.7975904133398772, 0.6289657693144077, -1.0306531936076602, 0.09021209960671835, -0.3829158087191954, -0.842111850504678, -0.45243986087947985, 0.0913431473227494, -0.34978413945983305, -0.4069758643279765, -0.3266901258680921, -0.22423720685801202, -2.248839649599625, -1.352316221576147, 0.4584314719977305, 0.5818995792227084, 0.686956883914078, -0.46233933775731967, -1.1898784578549613, -2.8156516410232393, -0.29502825289126733, -1.8351748624966648, 0.9547193186509745, -1.8593428115616148, -0.014675539374179383, -1.0658971719306878, 0.9967846314932735, 0.08453075304646446, -1.23863956927668, 0.6936258490044217, -0.6882889175572527, 0.7321749984935845, 0.4379965592896747, -1.166424138603095, 1.3532413977089541, -0.8477037795439729, -0.6564952854226216, 0.7205746083073581, -0.39242231480218503, -1.8707037635595265, -1.450496240165472, -0.3267161263002675, -1.1789624604306257, -0.5487032756567294, -2.012006635931187, 0.9011538404223707, -1.2615514220061919, -1.2848414194753035, -0.9441601685460574, -1.8866923444716568, -0.5312889942393414, -0.6022468223157399, 0.39315582322870807, 1.3409406853403902, 0.24223956229603488, -0.6521960589989282, -0.021898103892405797, -1.3772653402849127, -0.6413953468973971, -0.579239620086217, -1.2395027821353894, -0.8503068729139868, -0.15399772388187583, 0.06918721704450195, 0.43137760212682735, -0.05497838549225432, -1.039864084487058, -1.1801837856230961, -2.186735223162427, 0.030962138364586732, -0.5071806169928416, 1.279217181121468, -0.5177779598349147, -0.36050772284313715, -2.328475904308528, -1.5519366634577603, -0.8062337937679921, 0.06629149075372028, -1.1123807312295957, 0.3537807723341142, -0.9482853496857521, -1.084908559134927, 0.40570043933786104, 1.4771726279358532, -0.4945333498462934, -0.2719719691742628, -0.32261513498162014, -0.6554490931446768, -0.4726949407172757, 0.13139392407089104, 0.39609891425236987, -0.45164177930032184, -1.4174586353196905, -0.6910903372896869, -0.4786976783028475, -1.616161935239848, -2.1612332907109737, -1.5507594361130677, -0.8657462434753913, 0.5204847265899893, 0.992834669048845, 0.19033785768198677, -0.6715630669327838, -1.8742734901810658, -2.5050218078543076, -0.8500493685988304, -1.0038660334660578, -0.6827017978231872, -0.9506187696140065, 0.1831098380963515, -1.3606519826798367, -0.11660070588522474, -0.11142143407863894, -0.2760655953883757, 0.8324677340211982, 0.2005448989581891, 0.4238786385776816, -0.14358598481774726, -0.5219718747619315, -0.24318301036077822, 0.9491010778130131, 0.17593129367474133, 0.32514877535047293, -1.432346194744667, -0.16000448247758242, -0.21057210504330504, -0.4809135987113801, -1.8642235125552373, -0.33349146364699706, -0.2316153549477528, -0.381428429908932, 0.5165637363992053, -1.9900509154692163, -1.8497992760261663, -0.714634063989244, -0.3946694584396228, -0.3343067858948951, 0.2839324290897738, 0.699691750700997, 0.37019821382433915, 1.375167246742281, 0.017329266437867204, -0.4163146334510353, 0.7860908358239902, -0.9211642859051345, 1.0291960150127317, -2.2866158581499034, -0.06492908802194111, -0.17921679882099956, -2.5147551083918622, -1.7567525473082266, -1.995145716784816, -0.6461921541809013, -0.7229236245089474, -1.1703384490208308, -0.36864883205823384, -1.0486420059919221, 0.1945789899792552, -1.301055261542419, -0.17514754781194122, 0.11063607605313425, 1.3500799964685757, 0.07331852296212259, -0.14879568513259622, -0.4843399696889447, 0.6443177480245735, -0.6260618362644937, -0.5178787521277617, -0.060885863642745376, 1.5953947362955103, 0.37813606826577484, -1.3362046354368362, 0.038486457368950865, 0.10602381717656663, 0.4207797680329328, -1.056444760046673, -2.768472454523921, -0.060328282210389536, -0.6221422810873612, -1.2159691911287906, -0.5321327507547736, 1.891089303560593, 0.2545995939790859, -0.9201493450591113, 0.48340476787858716, 0.6950452917427047, -0.07846280681801145, -1.322194480740009, 0.5063511747792452, -0.6234038346863222, 1.1826250263747635, 1.9663791506227266, 0.7311901115174654, 1.9248438404582133, 0.7197147551788318, 1.6681642700707802, -0.11061425730024735, 0.37048941564461463, -1.0462719220762247, 1.6835044783610849, 0.26362910396350175, -0.4284702081089509, 0.3836815812243443, -1.315068300590377, -0.022226613231010293, 1.2769480815615546, -0.0825917338007912, -0.8310202329121308, -1.1297706053747416, 0.33143552211671023, 1.0427222871684683, -0.5506869075211377, 0.31517858946007143, 1.6694517669394504, -1.4028949658510768, 1.5148987442365185, -0.7219531451796121, 0.8793009092204803, 0.44215281137248735, -0.9428056877676093, 1.2931192504135194, -0.927301827165845, -0.5359727437749633, -0.048170503088174665, 0.05644065112157955, -0.65213470822427, 0.6047318428787789, 0.31466233072279903, 0.6865260635607537, -0.18306962422162407, -0.012257137686658575, 0.07632400153634807, 0.9391553229794428, 0.013573929374240573, 0.5837027966264028, -0.0010024932229503924, -2.1908806721861507, -2.264424898116518, 1.9089472711979107, 0.5531155758585229, 0.19670332977118637, 2.0837486793065376, -0.3038930865629635, 0.6379893195633984, -0.7513658394874868, -0.4454593974689513, 0.15947402494804316, -0.527560771118092, -2.02071229158132, -0.5876977116088503, -0.33867170634700383, 0.045373253818107674, -0.34489841596053966, -1.1708205286259967, -0.5259236410241933, -0.8869891147438241, 0.5525155216429383, 1.64444290863337, 0.6456963866750692, -0.4468551300528764, 2.1112467161051542, -1.563179440125062, 0.0167224947657584, 0.8009007178539235, 0.4158227057337194, 0.4178048183394916, 0.9368533293764928, 0.34194868720243854, 0.7067484593339396, 0.4034191615655321, 1.5603313917060313, -0.06669210042354207, -0.1629819105932235, 1.3663927238472158, -1.4827430255231029, 0.28154476609666823, 1.4434895426133514, 0.014795083661063173, -0.2677111785910736, -0.7451326294032616, 0.41080124475165114, -1.4314938452773966, -0.5056746292569364, 1.7250499895514508, 0.3295690465011095, 0.08648169126339787, 0.04493602634821022, 0.9300119469666872, -0.9597720524539023, 1.2041057321901258, -0.3664380270592779, 0.045604131590671046, 0.7115488569844785, -0.8592716270559507, 2.151049560267765, 0.6098227601854186, 1.1307237562090353, 0.3746643204108798, 0.31975326900230994, 0.43717973761074, 0.8697891831748771, -1.3162376773559827, 0.020160975679421676, 1.6146900768640884, -0.7793142814310119, -0.6534361097757868, -1.560454117205927, 0.9611355339422877, -0.8987388591832748, -1.3784784552004872, 0.8874494030946358, 0.9384856080478653, 0.017856128875702176, -1.8504576732868585, 1.4538357282947991, 1.9872133593595154, 0.45133769539437046, 0.9672392805370169, 0.3221501494352485, 1.079187386569203, -0.9503154115315741, -1.6188270757398218, -0.34557797063265894], [-1.3216331838130775, -1.0474001993708295, 0.45690249054045834, -0.9839861445555598, 0.8577152367170454, 0.5814271773984945, 0.12473569690599905, 0.09479246662236616, -0.016080277714862423, 0.06170106890576937, -1.476876431216781, -0.9031899710487232, 1.4689620422458838, 0.7351647018781824, -1.4837500970089648, -0.10806944403029199, 1.4000974757362512, 0.14320990435545874, -1.7184733615553924, -0.8528268245641987, -0.611123181362763, 0.23974129344114364, -0.7220937404592711, -1.0654625833926934, -0.9569302835676713, -0.24975031892987545, 0.8765315233212472, -0.7346662708801072, -2.09991901908047, 0.5119083732816536, 1.2525587039649029, -0.2618096917772295, 3.05526392786751, -0.07237774457151938, -1.3517174836366652, 0.33740643919703917, -0.3253051122655456, -0.17502387319964222, -0.4462101023020656, 0.5238489952069443, -0.47448467387355003, 0.40331980905878767, -0.025432992841650157, -0.48320666810210183, -1.1573065183855575, 0.09903906154336416, -0.3412597419107536, 0.04469128624667119, -0.46990419522529114, 1.0590446351488687, -1.1918459300093702, -1.833416267296868, -0.8478112574441017, 0.34586343853922397, 0.77344219058368, -0.17435344128312563, 2.105576038856073, -0.4176349346955048, -0.03566673351493388, -1.0869936464378278, 0.7803278690927737, -0.8161292525953979, -0.4693579476855341, -0.016650113783070797, 1.202794659122934, -0.7238962198178387, -0.2564112297626113, -2.1219011629364717, -1.1982111556814554, -0.5092560625195675, 0.7901603095576468, -0.23565883322200376, 1.9016479716036472, 0.8084397079036606, -1.2499364536139008, 0.46992902074981024, -0.5181962707362137, 0.624311517203403, 0.30402005489399847, 1.4446035998696805, 0.19238209008689303, 0.14851551261076804, -0.7796684282180004, -0.9256038494518759, 0.3742141482144475, 1.5152615816953883, 0.2834581096115714, -1.08229661101491, -1.7817203384317672, -0.18946580982910516, -0.7968969293917616, 2.0470785466168384, 1.1060343132149886, 0.39285095827953115, -1.034941509537386, 0.37137545868671223, 0.2105689259415096, 0.37230737946217385, -0.9017937411187672, 0.45891210848728736, 1.2320386528055056, -1.136430135585206, 1.9849584808317753, -0.4148530677320698, 0.83930801128807, 0.8330383561995767, 1.604786890269163, -0.711584501479129, 1.6486043688082932, 0.2806583885049844, 0.007251143163696061, -0.7740902369615104, -1.4781713855674632, -2.729356406458092, -0.8676587077317116, -2.333463732386784, 0.15789601746416887, -1.6488543042539117, 0.27481044119465653, -0.3170360048794878, -1.555488962971745, -0.40377958955018406, 0.6667526964080367, -0.6028472837748692, -0.29755746538093925, -0.5692820651736913, 0.0846644389585123, -0.14574159804144296, -0.28571570249262135, 1.833915693989669, -1.560261435813882, -0.18548542527573725, 1.3011077821452208, -0.03717886908864762, 0.1291440527488716, -0.5276458713591924, -0.15963416552687149, -0.7322034453773063, 1.3653550013364943, -0.30727176853083327, 1.6182778771098156, -1.5697797006314478, -1.0686610454086976, 0.9817471221134332, -0.5901558200150715, -0.9424683325782113, 1.4108548924069122, 0.2640885038733261, 0.3652961741990056, -0.6783280794910792, -0.48140822528734317, 0.9692916738744912, -1.5431436302016819, 1.2083225415877485, -1.0055221113369834, 1.0769333000834738, -0.2914252334874836, -0.39763744254303895, 1.5511025876893736, -0.03407572395610344, -0.5593963277845403, -2.2204857586392905, -0.7972003083275906, -0.47190661290492925, 0.17057810159581843, -0.8027111953221782, 0.6912258385890411, 0.49642145810225763, 1.0594640982223495, -0.3277300276125193, -0.28535367918410837, 1.1591223837570597, 1.3558088721913857, 0.05259904126272341, 0.1334399874110844, -1.018450744597511, 0.6585952612232115, 0.8887463616035808, 0.48603602274167634, 1.7760279143027213, -0.3174080667375734, -0.3986227926094411, 1.4240803181157542, -1.5197013148556564, 1.095241255535628, 1.9551231727103087, -1.9810805744297488, 1.2962452900081036, -0.45929261166399615, -0.11159599578685213, -1.1722803238577046, -0.35267471385561927, 0.6488338507882303, -0.899593579720148, 0.16584945059114875, 1.0763923797795545, 0.809686724586089, -0.15149960262794335, -0.9193563806382572, -2.046561699226257, -0.8054142209621432, -0.4005078147067677, 3.3384409455678137, 0.5257421182600324, 0.3191703990899382, -0.5244541048961521, 0.05952083455957074, 0.6572821399333518, 0.3701797094250887, -1.7972417526516442, 1.4279750965869806, -2.445414127380747, -0.23503714047783064, -0.5225489150438316, 0.762168404157892, 1.2815546203594668, 0.32552261864875925, 0.6146366712198039, 0.5810842464094746, -0.46827597669743776, -0.32392535045810256, 0.011291392718220916, 0.04156937746794205, -0.37862814971793707, 1.2323121964929185, -0.5752364591050678, 1.1118068684964915, -0.8273342087154198, 1.0627354806343965, 1.753555302000822, 0.5781076115424894, 1.0193479039170374, -1.0354908746593312, -1.0929872147578243, -0.03913333159569601, 1.3657476959495978, 0.7563433084117344, -0.30142744134699306, 0.8825297378830235, -0.5813001168724129, 0.5742382445284544, -0.6737755215974751, 0.07841211140704678, -0.44803958856241577, -0.9817080061599509, 1.57569348633566, 0.8454040903878625, 0.6029758927467599, 1.3552407038532865, 1.3439120465310805, -1.123039569875639, -0.49090216022935784, 0.2925044077395355, -1.4916972021730288, 0.25912255366390663, 0.7563248958429588, -0.6700988807026982, 0.17816968610214606, -0.26922241309506667, -0.39098744161631593, 0.31169632883583487, -0.2898196671717341, -1.3642690007112754, -0.6656929419345577, 0.5678191404808863, 0.45783488913145715, 0.9311939422090727, 0.3778371259910247, 0.36183865425519096, -1.7211292487992826, 0.9209278617834576, 1.5006953340794769, -1.2384167651622056, -0.634966257053794, 1.913331471166238, -1.736886908531926, -0.3538589046147437, 1.3674532179737724, 0.4755125468178305, 1.1514615048256704, 2.1764998308751786, 0.6035922166342723, 0.03365065377666348, 0.2657425810468204, -2.4694881570552076, -0.869242314503072, 0.40841529106393387, 0.517685775086659, 1.4179781042193456, 0.5990087777687114, 1.1115287998266024, 1.4902552003104614, -0.9104960413517657, 0.5245173340979739, 0.18317168290686353, 0.05742162333371688, 1.5086177834359766, 0.44811768530539087, 0.7252865039744646, -0.7459076635577826, 0.7158595486284353, 1.0855445198588531, -0.3607813253510825, -0.7989960574037698, 2.586242606039163, 0.982019681479282, -0.1408879415630138, -0.6823591719988862, -0.49534680215169036, 0.47304214149547313, -0.2382816713244942, 0.4637809590658334, -1.4704546628970772, -0.9805955141973397, 1.317076111017604, -0.6718481955952343, 0.11169026193781606, 0.3517108531643686, 0.062204465287105014, 1.6037990382672478, 0.43785226105512676, 0.8767294716708598, 0.26883111973570123, -0.13647521354180522, 0.8523341727954983, 1.6513641520412743, -0.48657856139598166, -0.042501418924782944, -0.4828566010729536, -0.34257235706502187, 0.19614177707396327, -0.7252546685214354, 0.21272167552443544, -0.0830194809827452, -0.3888923065001225, 0.6091711363346892, 1.1377436981743947, -1.3238088933836427, 0.2122705513505734, 0.07909157417309247, -1.4856974954631725, -2.5772006011655244, 0.40189258939160366, 2.0701412899371157, -0.9193885371546455, -0.032503910838961037, 0.5378057460757423, -0.8887086581353258, -0.6818090898472485, 1.5244975750035217, -0.4671373208702881, -0.2634007386483523, -0.04828580271575492, 0.8448878994122225, -1.0467288886162884, 1.3739691836352523, 1.5879133179444986, 0.6246057049160668, 1.16148252576964, 2.685106736529789, 1.1797138309639386, -0.11603829505951013, 0.640247419682944, -0.16125915509738492, 0.9525776916264993, 2.1709043182191876, -0.5220160471955971, -1.386605121191999, -1.6266179705813082, 2.359125165025219, 0.9165995481729242, -1.0247221121967889, -1.7532305915669388, 0.4598500446668587, -0.20945757739817636, -1.2088965560711948, -1.6197626184002536, -0.3621932974487087, 1.1342509969467462, 0.5991310295474367, 0.5502216499858347, -0.552197181048793, 1.5703371300040816, 0.49590147486287295, -1.0831062634618587, 0.7487262027132038, 1.0278460559982736, -0.8929997073551914, -0.642992503110987, -1.367026303218605, -0.9759042086234889, 1.801185404437699, -1.3433183917716387, -0.38345009593968504, 1.7007900583250748, 1.5140321417945595, -0.5176594931291092, 1.0158321627581843, -0.3910380146444803, 0.857189161872048, 0.18733131903346312, -1.2125566300626305, 1.7204574882746813, 1.457637681865037, 0.4279933704126901, 1.2498833403438778, 1.3559800576994996, 0.7813013536687289, -0.3761791460575216, 0.09583152079531562, 2.0773655625209098, 0.946056955111088, 0.11391292970202264, 0.5541043279084641, 0.8147947685008833, 1.9026680069416892, 0.652892611446801, -0.4107834070414552, 1.0490076463478764, -1.0974860865148985, 2.4338993445986015, 0.32716786175096824, 1.2081720751358678, -1.2606131822458444, 0.3513652633110632, 1.0771703715085195, -0.047796404989665926, -0.12731539708831963, 1.5987104877427998, -1.080670766639911, 1.0001642242086903, 0.04116540169161149, 1.0200322142095937, 1.0171802919181614, 0.6942996950172465, 1.9367830321356114, -0.7439399416576159, 1.6593408686685698, -1.7542265168021995, 0.4211712675289837, 0.3683765049068266, 1.8153402940729766, -0.80387812413335, 0.2335920311885072, 0.11322218693675591, 0.8070486611057656, -1.2566159457480177, 0.0702572542448165, -0.4401019109262127, -1.0233196489353185, -0.8647022481501534, 0.8192515173014653, 0.7206191749947702, 0.11636385323448911, -0.5984907508625632, 0.7644787761288309, -0.157348680893495, -0.5748721510694725, 0.6010646746960976, 0.39357422489155547, 1.0614432999375465, 0.6071599897696565, -0.36077812462941705, 0.3645121663012587, -1.7369772164004478, 0.23134900484048188, -1.1980442218330942, 1.5346546401092016, 1.3383642004400191, -1.0811375755152177, -1.176662835401613, 1.4758332344140688, 0.2697217244913691, 0.5729727486034751, -1.4614774263201697, -0.14627022072656923, -0.8460690766966461, -1.7841824127246606, -0.7897633003219943, 0.41206062371275765, 0.2662351401683551, -0.05239872379041291, 1.0332649315233793, -0.35087056787827264, 0.2122356654799539, 0.7322671501370578, -0.18563800177933437, -0.5813767399236562, 0.169360163337, -0.31813873315227115, 1.26710941486789, -0.42372338007810173, 0.5084800283495592, -0.03136515559927047, -0.2765616253394881, -0.030323871889309857, 0.7378460116807163, 0.42928917105359177, -0.37363215341313527, -0.983666431492981, -0.9510880652462232, 0.007928968379997155, -0.6261321835325623, 0.4162791092641482, -0.6905775077401656, -1.1514936841185774, -0.7822405599592639, -0.5095570613920302, -0.19106725035020894, -0.2085544765166945, -0.062281365409470345, 0.5495115888644319, -1.985260780722194, -0.26982479928862796, -0.5481019896808971, 1.503220097211804, 0.46674704730779637, -0.030208184139886643, 1.9478802083894182, 1.52117442708796, 0.5396240804390924, -0.362740056884616, -0.8095399188293838, -0.8502739256465127, 1.4342044019434297, -0.20605913535855325, -0.09586903917944405, 0.12547034911737942, -0.8557442629978873, -1.5855902376565858, -0.5507145088789948, 0.5005223134296746, 0.3205272932322114, -1.833348790913991, 0.8135609318953068, -0.976229373701282, 0.7226922282484385, 1.174204511589277, 1.9910929488357847, 1.2594589719001517, -1.7000755470985498, 0.23112978914711843, 0.8097477377911614, 1.7972012096516912, -1.263741104438834, 0.6617115301141503, 1.0115288913443412, -1.4595826643566783, 2.076675655823266, 0.13803967960764021, 1.2702896749179753, 1.0715605909919097, 0.5433070738940813, 1.8398963468117104, 0.5915850463531885, -0.13267539665231087, 1.2566488755708634, 1.0252118668710877, -0.10850399875055347, -0.06342864025105124, 0.5142556254786734, -1.154853258016705, -1.3275618114873111, -0.8463320008841259, -1.4004129293730598, -0.852182152552648, 0.41743455406502417, -1.3611903003355559, 2.037263353486306, 0.0048088378841704, 2.0320112770571326, -0.826423192188157, 0.515873972892993, 0.600343264186201, -0.5934543285344829, -1.088151243603666, 1.3485084224623096, 0.592961993839983, 1.1236940106471234, 0.17860228720133303, -0.8795607572987189, 0.21703106841946773, 1.6752393585086345, -0.589139867831923, 0.8955659100350184, -0.07301436042302528, 0.4120252664024592, -0.6838639665436382, 0.5032132826849356, 0.8636463374269415, -0.3070673878532485, 1.5314811172898237, 0.7610846340090793, 2.438726046662457, -0.20728879328035207, 1.1995190908331061, -0.03504250111274361, 0.7753081182616938, -0.5946150475268279, -0.5343073574220201, -1.5650212743781184, 0.1255113375732319, -0.9025343917855477, -1.617857282476192, 1.7534976496983405, -0.4203288683131197, 0.1100839682774555, -0.8631002980188345, -0.5067756858166143, 0.6600329321428934, -0.21498527789113878, -0.664211302644436, 0.43974589836757444, -1.1255441579941343, -0.24108516252810422, 0.7824786136005367, 0.06428313265940222, -0.4423224204891785, 0.06443085351718646, 1.2189328427701651, 0.35345464600242404, -0.39556187846006524, 0.7882917417804358, 0.47379520625301, 0.6679982384951432, 0.056743144758321144, 0.38987190221816254, -0.49006130424260436, -0.951728208967937, 0.4425637468001966, 0.4402726635058453, 0.5455353066527194, -1.3439877571023295, 1.3736845582418689, 0.7214850775194674, -0.5876569149696554, 1.6068468574476493, 0.5598332616968023, -0.34391342420899057, 0.4625727746139874, -0.7806698117735985, -0.5485409267299881, 1.4837648383618085, 0.3021365750410706, -0.6618660135628979, -0.9709392964534618, 1.3271597342577666, 1.0534245371530822, 0.7585559421000012, 0.6113594176527746, -0.9128926023320174, 0.7852604957745553, -0.86086495014699, 1.3843927038892097, -0.7881285175962339, -0.9282284985657484, 1.0789868361362052, 1.882956115044802, 2.0153262934325062, 0.8166949931146363, -0.5683280069502293, -0.43673413195323774, 0.7137403096100764, -2.0391891788993375, -0.6727474941974732, -0.8447895575250025, 1.2290002833802176, -1.279994353415423, -1.1322404718275725, 1.6476782504062435, -0.4620311838952038, -1.077429681940955, -0.6510448968727686, -0.6374971831840622, 1.7598869712551632, -0.16574944722571386, -1.3356041497102062, -0.5299441128914827, 0.14511816544701345, 0.5647698358907657, 0.8229364303578985, 0.6117108251882556, -0.4626350342350265, -0.6304863875660133, 1.0282807291722997, -1.477349953533748, -0.959751338566583, 0.34480914003111707, 0.14385836041773087, 2.0821243906890343, 1.129803827557101, 1.0284600230917231, -1.40027221082443, 1.1780474627883901, -0.9987918024664475, 0.01876000910788211, 0.3051295101188259, 2.2468543223378994, -1.0009788986303092, -0.14788434918413254, 0.5477287085327958, -0.5638462896057627, -0.3830698375194722, -0.7808582601045567, 0.40530824768626666, -1.138281854428988, -1.6537216902574492, 0.47107357997133137, -1.2050705088008578, -0.33505495166687577, 1.102666136367789, 0.6859157563356025, 0.1330505087139771, -0.3473629789678708, -0.5396990559518448, 0.1736816417060435, -1.1073445930949344, 0.4687255451381102, -0.22768728759288837, 1.5311426483748878, -0.7527914515337059, 0.7160625341945468, 0.3130687312295085, -2.1427059723471187, -2.0948447370548986, -1.866699876992159, -0.5683371331130572, 0.7199514386614803, -0.540610521729955, 1.265141556893554, -0.20228500797449156, 1.0842203810074422, -1.1537416519252983, 0.5382209016498368, -3.2280977089099006, 0.6732086414362359, 0.2822826733297229, 0.8363569836375712, -0.087578541139453, -0.3512371079779659, 0.04057151034745299, 1.5351965546943893, -1.3606282253929975, 0.52879371972217, 1.5707851546581648, -1.0239995682793357, -0.43840768825698423, -0.25012084436387555, -0.2981878585947898, 1.0272987314211888, 0.4349258861514777, 0.07139206445006581, 0.6038066099019754, -0.330331951747661, 0.3745578838057887, -0.1694545882060361, -1.896577787922418, -1.7299946489740448, -0.913018916339239, 1.589542768650309, -0.3048537306178676, 1.0988767979057066, -0.9748282015726818, -0.6180932002289049, -0.9222634075257151, -1.3478687561238532, -0.2439009746898085, -0.2127050556213439, 0.614570701254783, -1.6433174168079139, -0.8467717876693057, 0.08860946796770436, -0.23440334543330682, 0.5668543717407677, -0.4508978174291569, -0.36758620490892746, 0.007564115205375036, 1.0682231036883538, -0.7728643618332212, 0.07996598895838732, -0.6193464578436253, -0.2948938755592129, -0.2564149600644265, 0.0037301307843000007], [-0.8710262542412761, 0.7633349826024598, 0.23412668212668586, -0.13810950216609347, 1.3015176380428866, -1.2117394610679086, -0.641721823120503, 0.859099474692253, 2.3693586683140047, -1.0196316934607421, -0.8819777869272459, -0.5296822340372592, -0.38894518670467376, 0.8524752445244845, 0.8061466680847192, 0.2157791943390672, 1.6283927149767408, -1.3686768932280629, -0.47750311203620227, 1.5127116372114027, 0.614051164912037, 2.1499491870122354, 1.6213892679931194, -0.38781310212550396, -0.4176541737113899, 0.2816082528482127, -0.15608155150543446, -1.5245573166282766, 0.7448116303562488, 0.7795922985149978, 0.08430794204875748, -1.6485399944455796, 0.19703468590833959, 0.08159405809742923, 0.1861272146396552, 0.7307585903441893, 1.3347214664475815, 0.8700695794364407, 0.49516535814961177, -0.30089126142219474, 0.4649053937783013, -1.294250254825543, -1.8650565375416155, 0.5241736828801085, 0.5055142190300869, 0.5476392763819928, -1.359875449158646, 1.679520451959045, -0.8626973389873595, 2.099233444985405, -0.7176332571026899, 0.27505562516963744, -0.5526046713797739, -0.5933690028321063, 1.1978683217965949, -0.23341869350018066, 0.4607309681967512, -0.12468945956303697, 0.6450075609740374, 1.5469203410821688, 0.24222682274836152, 1.8535502237182506, 0.6937900857033238, 1.1011528626455946, 0.4433841769236412, 0.6032953780549852, 0.5689707885052674, 0.9720798589641938, 2.2000980732446047, -0.40673818573700193, 0.08806269455814647, 0.2381667710251342, -0.5435778844410843, -0.6269177593898148, -0.17286363177146613, 0.07068330753736132, -0.2152016540578928, 0.7742940451065741, 0.2915886502999641, 0.6971673021274947, -0.3518516208678008, -1.057655459321189, -1.21455441837246, -0.7394004041572232, 0.3753878883706835, 0.4864529165989472, -0.2747718397342354, -0.11461792176886725, 0.48799951208706815, 2.4879310633785003, -0.9722115419153905, -1.801986454319622, -0.6517541561121165, -0.08363986775859815, -1.4755225371241345, -0.04939427382883875, -0.009458622102792824, 0.8753627299826313, -0.5933795577542915, -1.5407192501454123, -0.0522709646114075, 0.4980844746738578, 1.2023737506270884, 1.0556373850713634, 1.1595596364519656, 2.1571797502384276, -1.1956475656444923, -2.548446510153188, 0.046648586243862304, -0.4688676566720746, 0.7978425004019299, -1.018458567449516, -0.5970433810836587, -0.5123805951208734, 1.5045736022567655, -1.0418527231405104, 0.3887628552119332, 0.38100494974296684, -0.19003781674644943, 0.38461520025068935, 0.012717878699541779, -0.6649532011233064, -0.2700357984661294, -1.2817167955648425, -0.9568358074115223, -0.8538409624261947, 0.15761584633656933, -1.294544091363612, -0.357142765465861, 0.22150211438352765, -0.6108998814432417, 0.9408075882214205, -0.030190932268199567, 1.393749107665886, -1.046736463469487, 1.6813824364303258, 0.581584246959231, -0.7866368954709199, -2.0550705051691236, 1.1269546442880836, 0.4246054033846318, -1.3437536102533818, 1.7554086297506903, 0.42663672758079746, 1.0186436724445351, -0.686780923865812, 0.23859740195208487, 0.4835471981444078, 0.6257465388302915, -0.027002767097857254, -0.4615199778571942, -0.26748782016573724, -0.05337851660970219, 0.2244828391878986, -0.6864653783180393, -0.6588254195400358, -0.9449079432585077, -0.7660348957343036, -0.1617896305095457, -0.8233764816225753, 0.10918231431348345, 0.2903483482807048, -0.9578019168926284, -0.2053771132213546, 0.9719709689482168, -1.03100761570601, -0.4631150497716988, -1.0680469033532367, 0.01722426362402952, 0.2245237552199449, -1.7959992443038972, -2.2961127235178975, 1.107300261227504, -0.8216632441907492, -1.3535932932279304, 0.7090828549046514, -1.672447533667118, 0.4054182368508218, -0.13157600975285233, 0.5167332254326299, 0.56678132042868, -0.34897448412946863, 0.763942914441434, 0.10903117677125361, -0.3247003488993745, -0.3991221091358447, 0.7489778786319832, 0.2558748496683383, -0.12540064814786298, -0.671363870826878, 0.9811363614922132, 0.507026126837513, -0.004523789209996641, -0.057601331505190964, -0.3805676014407966, 0.5187711189306436, -1.8002356035199, -0.5118259793077398, 1.156457153223334, -0.22914480627053338, -1.2869119621387526, -1.3244391724570148, -2.078664745679462, -1.7225249350778429, 0.8260476699067375, -1.5569177060175454, 0.9905182994416116, -1.6622535432906038, 0.3344104096669995, -0.6937315524464474, -0.06418336628477216, 1.129825716061513, 0.682360713033999, -0.43396010690104386, -1.1183442012885152, -0.5796699505900188, -0.603969707604929, 0.009828474831537887, -0.7680190265594337, -0.909360781749432, 0.828022930557187, -0.11598983480242336, -0.8219211084099877, -0.6692353957099922, 0.7498120975894238, 0.3582159053908742, -1.5481090890708273, -0.8529392790493723, -0.7999783527541684, -0.8719490800240972, -0.5725187074013177, 0.060623216575116524, -2.751962081649665, 0.3243989880485901, -1.407088416569787, -0.6390931963123129, 0.1311338702247021, 0.8397712334370381, -1.163961008188952, -1.9905893286996947, 0.9040424629345771, -1.1104148664271813, 0.7447186491675764, 1.4069788014244804, -1.6870413282910435, -0.7810356628666929, -0.3865840293411215, -1.5386887907565512, -1.6032714620384603, -1.3273792343530948, -1.5884053943992626, 0.34841455307773456, 0.5422858571593876, 0.3593247236460719, 1.3845807267362116, -0.8260119388441353, -0.06848491624167846, -2.111386505631946, -0.5384640847040636, -0.7706767105659513, -0.03739244192878618, -0.9571183423289786, 1.0017323617687806, -0.6546880065586514, -0.6270161867405736, 0.028944212227146663, -1.2352267675274777, -0.45718769896405176, -1.1343946749852356, -1.170511532809579, -1.0013724326064912, -2.8463509088666736, 1.3263536488902534, -1.1410307551997159, -0.706936293129916, -1.619507182790865, -1.0153020432535522, -1.2011745080798484, -1.225515549240224, 0.7293611771424319, -0.03769634470715413, 0.2567737793796002, 1.1633443362212081, 0.4258268508387531, -1.9959497493864504, -0.18587175920960092, 0.1269446862699818, -0.4603427636850018, -0.19573726607728958, -1.21000681280826, -1.8841050604539284, -2.133539673100513, -1.842784564840495, -4.1239591201541606, -2.007866967695131, -2.3031721931815117, -1.9101784493886107, -1.8550598646742802, -1.002323705898164, -0.6529494274285145, -3.34699106277619, -1.0617215129991988, -2.7938218682141214, -1.7510802217039345, -0.5686837729471279, -0.053250355927694774, 0.7768450052720575, -0.8390881336783963, 2.377303152106695, 0.5623066512974152, -0.493003841377179, 0.26859987297330334, -1.1807572340429107, -0.9389207469341998, -0.1178896577365763, -1.079383985208955, 0.9904806292399372, 0.05968356461552495, -1.4709354938196195, 0.49297489359889624, 0.8391321135596409, 0.1359787262260539, 0.16334156410209605, -0.18704310062464902, -0.3348032429627321, -1.2727840665365369, -1.0297405294446873, 0.4903968355234507, 0.5241520031190244, 1.3440016977527252, 0.2910704345587106, 1.4118984359759206, -0.08041860399705594, -1.2379747659303315, 0.6636368330020397, 1.4003885954257842, 0.3299921043431557, -2.8734725957867657, -0.12581383873453292, -1.390416088020769, -0.7018562400816728, 0.9111832660718919, -0.7687584330711774, 0.5186296429400613, -1.1569708127377032, 0.8219429675455667, 1.4556005943478878, -0.10864865839138906, 0.06774542187872211, 3.869181706448545, 4.734130848626753, 1.8148621152658606, 0.28257122371102256, -1.076691200007095, 0.8911757672937418, 0.5158918473234886, 0.3188149949189858, 0.9475523558592965, 0.5595724825423399, 0.5834275513675206, 0.39745316305237965, -0.038330430833307415, 1.4237329916955601, -0.23031819352314997, -0.08519846626765654, -0.05933079200674326, 0.01586461498034715, 0.6246514608911881, 0.2250940106627804, 0.20927949310673383, 1.8552886411177243, 1.3345807883598344, 1.2232739620561075, -0.4805868388571681, 0.7306566656017016, 0.6110353493149819, 1.9996602466453017, 3.2255901234539643, 0.8327890082613376, 1.6350191979082593, 1.4983342287973764, 1.3592058116024535, 1.873191724727108, 0.41513105878914347, -0.6888273132893076, 0.8556270419191908, 0.9166387477639667, -0.2311277428065663, -0.20418104692929714, 1.1485322369193165, -0.7012330510647212, 1.4621490880855694, -0.9396173737768234, 1.3149542590738734, 0.37767412846665455, 0.1106757348439299, 1.300435773042319, 1.3404516631899432, 2.2564141437951606, 2.2557233277424236, 0.04916974332061729, 2.6394072181911836, 2.2785658602768026, -0.007516542802402997, 2.433885712501367, 2.3755921611160287, 1.7866340290288203, 1.8176182068044129, 2.3288886403858995, -0.10174595076807373, 1.1610286895712318, 1.7297132966239905, 0.6826147213414192, 0.37446228619783567, -2.4870737659439004, 1.2238109781860649, 0.3213229083673337, 0.6922702802947653, -0.05200281895953686, 2.3710742458890723, -0.10695398174930436, -1.187552182656712, 2.351238232377497, 0.8526109519582511, 0.2140109238542808, 1.1866389598028506, 0.3677032037890138, 0.6535477173914959, 1.1279396375180133, 0.3991867904597142, 0.029701565615600164, 0.9731343583634732, 0.022345900323913023, 3.4448618806801687, 2.5627365499880317, 0.15484553986151062, 2.8623485955261714, 0.21524921280743864, -0.19872060936884492, 0.4076396507588665, -0.5990091571343532, -2.6611026969340523, 0.521807288054324, -0.12936164050703408, -0.23287202648343888, -2.043049283452835, 0.6907007825839219, -0.052408058171963263, 0.5124522372127149, -0.3738861309196701, -0.9236905870441721, 1.3591910686479218, 0.058260650601184766, 1.0561578758237948, -0.08796208524396236, -0.021501706282904272, 0.2645952376713045, 1.9030582350655683, 0.02687523010819729, 2.2017437371141475, 0.08023384313768749, 1.263747760877042, 0.03662290547429285, 0.35044625803422075, 0.9043120096948302, 0.24916577417282995, 0.19236490916235835, -0.6284935545166942, -0.5750404158400875, -0.5973265368433827, 1.2665203940064227, -1.5342173163164687, -1.1881695572239446, 0.5935523100752134, 0.48821354649298143, -2.075851051391045, 1.8142377536548544, 1.2330345358227266, 0.45201050749280114, -1.0320220095251844, 0.4627504035314423, -0.0002730528161732551, -0.5780110374677456, 1.4165777453679962, 1.8009239939240018, -0.30881335816276, 2.433839319083189, -0.9419454387665381, 1.71593986825463, 1.4718921407664247, 0.0799367185367631, 0.9876030932419806, 0.47392729954883084, -1.3054312214762769, -0.9603409263817875, -0.5697534524319766, 0.022872995035839193, 0.12674374019867668, 0.043013293391509604, -0.447190481646324, -3.515809718863985, -1.0693830938093587, 2.384718743956562, -0.1237622263922151, -0.5399791291713338, 1.1726182464996575, 0.239035770042934, -1.0982258006571153, -1.0004237726550347, 0.20144088200540441, -1.3346448184619986, 0.6156657483488638, 0.5893058157200768, 0.6278861092942504, 0.14435541739367397, -0.13230480012224177, 1.5090970227833644, 0.5758597124341414, -0.23382106805294062, -0.9427543034187922, 1.2020769233605721, -1.859306754234329, 0.7709120682409462, 1.0575927747191887, 0.06269851176093122, 1.21560148078486, 0.34443739360436104, -2.1628346230588242, -0.1458485810491226, -1.31443379871964, -0.0722132555725257, -0.057819473042375315, 0.03888636140538373, -0.20776146777021687, -0.8047788094809752, 1.5284897274276052, 0.9825265039102321, -1.0277758421253766, -1.297984713735655, -0.6069976776119603, -0.5876700073920378, 0.6624103341048065, 0.9464566622466223, 0.7116266793216783, 1.0571456097701502, -1.2521811596442525, -0.3187191767860439, -0.4156851685063125, 0.22490112670574175, -0.17622856861898142, 0.23320322012611233, 0.4290746186841846, 1.0956620047924002, 0.7462214312780963, 0.24597033379773153, 0.0363423975173775, -2.3774607004383324, -0.5026601551309805, -0.6111058040356073, -1.093309738047882, -0.15741479228160535, 0.0558483178855004, 1.7173769367045928, 0.6708886982244439, 1.8197767863669345, 0.009051447730533558, -1.012846245793188, -4.060484761461606, -2.5577388390007547, -1.7680825737526662, -2.626184568329908, -3.082025471275545, -2.460547856442391, -1.2511315413426902, -0.10514380478654449, -0.6095480120049873, 1.400432564127781, 1.5378968068708672, 0.09424397283735178, 0.4988338563689345, 0.47058449622828247, 1.5309947274715883, 0.24099000282577845, -2.382427038558439, -2.22811745166742, 0.2704008453550928, -0.7234365752889175, -0.921328563228348, 0.32174097334715523, 1.9597232897922952, -0.9954836595627815, -0.7873843477893984, 0.6010180380296171, -1.4179183436563032, 0.46033422887821046, 0.05787875828977326, -1.9197591106624328, -1.7992585652772355, -0.394170277705318, -0.44881608312046933, 0.2100239532847548, 0.6905144406705186, -1.4281800201665282, -0.6671241673539413, -1.1832059741237422, 1.3534824981108067, 0.6410543957448763, 0.1891018021332305, 1.3034596238550993, 1.2114480594145371, -0.22966329699699198, -0.6947291759261055, -1.4926779351522408, -1.0378319680319248, -0.3379754586667934, -0.770173855605835, -0.6605815269853963, -0.27430179852274966, 0.6592977977301868, 0.458859390409923, 1.6640380101024264, 0.12447798405964544, 0.6298683604072912, -0.816351039201735, 0.03886239339893055, -1.276962998045784, -1.4489586238198167, 0.22416514888605188, -0.5406331732832453, -0.604185878011424, -0.06801431623045445, 0.31108209479544485, -0.6707451397442172, 0.8912090217075559, 0.03701291392706517, 0.2924279226986403, 0.3962000132726374, 0.36713778137733466, 0.5762819972470877, -0.09618655886634135, -1.6926328917242264, -0.8727052636636501, 1.9610293680195574, 0.7194855532949774, 2.084125218546515, -0.6253293285717467, -0.8483601557599538, 0.17492134211054836, 0.09974490105652947, -0.543514840749402, 0.503703917396647, 0.7207978461285521, 1.507878913466608, 0.22785928359666327, -0.6089880774315043, -0.8499399095053026, 0.5425095711475703, 0.11500709438688099, -0.7587479622325225, 0.5793672706592653, -0.5711203930266499, -1.2156874007199123, -0.5630327506288422, 1.200867821454302, 2.6363254791699062, -1.0562088025674257, 1.9868107634305, 1.5826547303542229, -1.3976956621063181, 1.6212146018721239, -0.2243876907380292, -0.41983835871915415, 1.0513760851599399, 0.7333853590325263, 0.14019243875412954, -1.1313325519945037, -1.5694029341659872, -0.8908698086357459, 0.8819240499541852, -0.14393522691120084, 0.3904661058133641, -0.46432541500792046, 1.4342385005768923, 0.6444007861130117, 0.5709352152674921, 1.0334790770375317, -0.4646123227769335, -1.5253943359184867, -1.843346580498762, 0.12319072714179885, 0.06065928283240333, 0.20193076989164868, -0.054197726076176206, 2.800166850508836, -0.029637732549654558, 1.1479374714742676, -0.48053053147999747, 0.7829795902721236, -0.17923734689950094, 0.8325770067054631, -0.2524053017097593, 1.0022191295826863, 0.4736371551241354, -0.16762164361714882, 0.7947968830975805, 1.2303055781186314, -1.0527113475197813, -0.24498094976762236, 1.5630069495018954, -0.0023966324703203097, 0.7547326581154153, -1.1460233801704756, -0.41215916396423563, -0.14446951400432181, 0.3519977375863193, -0.3618208152228099, 0.7240900965037222, -0.18738222137076574, -0.4452459236690933, 0.4593485408858437, -0.4560345869191525, 0.8229708650156629, -0.022245590720475817, -0.5392594010211816, -0.8107312267271555, 0.9330767989291622, 1.1523637934543827, -0.3359366739472519, -2.220551926142822, 1.0470174179577323, -0.5481522188040335, 0.9962357071479739, -1.6299870872295292, -0.2918785201434478, 0.7861082195794609, 0.921935480223039, 0.3114016169542706, -0.48931820604667, 1.0124266914387294, 0.766288332732547, 0.42133312385296917, 0.46516515916363055, 1.7024380612472894, -0.6328316309138037, 1.4013506265039026, -1.167413602676035, 0.1440017296163444, -1.4606099172493519, -0.09640112654636981, 1.390024214178804, -0.0492689236305762, -0.15319858762248353, -1.0954910871070742, 1.4695563580472664, -0.5378709661360224, -0.590588048752738, 0.04087963665049485, -1.4376736811189483, 1.2043159681946791, 0.8282433649405425, 0.4457150269705263, -0.30005556598864636, -0.052205081767210955, -1.1968909127655172, 0.38436347125051984, -0.6765122476583586, -1.1037761611027885, 1.1774773322091787, -0.5011444680255692, -0.6730685571687516, -0.4369266080592426, -0.16125383139924815, 0.31758220579092544, 1.1235297807625138, 0.2513434505585166, 0.6766890681150385, 0.7798884513126639, -0.42684569326669847, -0.31038109330879643, -0.35821075941736297, 0.4231342749440326, -1.3258339469888631, 0.6187727550006469, -2.529510474170817], [1.3896811948026733, -0.13719428748279286, -1.9547478260204538, -0.916338746903085, -0.27627687193574246, -0.5741071649698805, 0.45527236019106126, -0.30709672845789776, 0.3014761100782287, -0.3981643323529459, -1.476591539857279, -0.05158664453865803, 0.9130935793005521, 0.13549943637755385, -0.4810295284680131, 0.4062062059174832, 0.054991577417570776, 0.18831166394050974, 2.428112142972125, -1.0686331437795684, 1.208015079243922, 1.1112366446831279, -0.5367455559307391, -1.4541485267327616, -0.13429914343582627, -0.6202797256707172, 0.11796038122593434, 0.6000083797147822, -1.3765716894658346, 0.4124258587779837, 1.3888950465754226, -0.833324547949741, -0.2844972719136582, -0.8771920278083943, -0.40274576713964394, -1.5296634828465168, -0.1129559510976327, 0.30052264922689964, -1.163496808833989, -1.0952577704342146, 1.2090319548769584, -1.5192305834337623, -1.2382726582170944, -1.6449143107644804, 1.0203996298884068, -0.5886502779230248, -0.3283333476430285, -1.3061916407996568, -0.05202245274986551, 0.6764640230099198, -2.144945233089711, -1.1961547027122685, 0.4872056083785549, 0.3551842762098955, 0.36510724135769296, -1.1432277416068133, -0.9864072928750024, 0.7348688392576901, -0.3648389880135336, -0.445919030841251, -1.7840402412343108, -0.6906301459173819, 1.6591057747375852, -0.7901821563164452, 0.9927395312897513, 0.573002537191669, 0.06798190620049543, -0.2860885456490143, 0.45210582334714505, -1.0505595217295878, 0.09810743536828995, 1.4371012434079085, 0.5777529048839221, 0.535230319224868, 0.9972006107475863, 0.6905646876349694, 0.5018669996242042, 0.5322294776216021, -0.14608443324339368, -0.14162307741351746, -0.7682182294540789, -0.8954395617560501, 0.5818800184670828, -1.163504843475254, -0.48486881135038135, 0.34861981974025547, 0.030808758331752836, 0.19243529830960454, -0.32782122048928924, -1.0388258475441694, -0.19347135150743264, 0.7719450785090083, 0.19545981479030572, -1.2230726013241826, -1.0064810891876674, -2.24625451624195, -0.6339305173694237, -0.39191888288123267, 0.16630552102575735, -0.8375077425770098, -1.6496028083550396, -1.0392014153271487, -0.5205526857991162, 0.5692351464328689, 0.35472701267060863, 0.7007873327870517, 1.7534422784123427, 2.01761160849608, -0.794991965908736, -2.007398427957642, 0.012106613254229091, 1.5143899428003214, 0.09385535647658146, -0.3659313088831669, -1.5135406671752105, -1.1445553965353361, 1.275371109852715, -2.2440209735646395, 0.29862136582793286, -1.6283875745617837, -1.803074292022595, 0.22053070829618954, -0.11244240532425978, 0.41796325607470736, -0.13545300723729517, -2.228577546064726, 0.09352445392263577, -1.044815587792387, -0.09782822640815349, 0.6763095062990218, 0.36459560273073627, -1.2249294032876754, 0.3695966263878933, -0.3514580717553407, 0.35667085645062363, -0.9526704561318562, 1.999996975818625, 0.33196579969406603, -0.5938772701792302, -0.5696516858108266, -0.42151156230865394, 0.6440222820234816, -0.06086755001026951, 1.0197636700538293, 0.680863219082122, -0.13102218956227923, -1.9977722033681495, -2.4197934861125336, -1.9005074184304143, -1.8419996778156615, -0.35736278708129904, 0.2305948901318066, 0.49519944832919865, -1.405189369200302, -1.3830068174097339, -0.30345091700897375, -1.5824319355817535, -0.47290742283347986, -0.22697451177878092, 0.034338709697114285, 1.4020229706794936, 0.42275642650476036, 1.0801884844463476, 1.2122131808014576, -0.22473718441183765, 0.05628902230019076, -0.46154789601879653, -2.4856770846955043, 1.2849978418431385, 0.6654658407482421, -0.38831243560520606, -0.6349761075881739, 0.46933284323353003, -0.4159902214502923, -1.6936729695711847, -0.3247683246858821, 0.595945421347421, -1.1015699165291188, -0.95923023747329, 0.6258040745513149, 0.06034040374920383, -0.5216163204994857, -0.9057467218744585, -0.6588544512896092, -1.453314001932831, 0.23251723698881396, -0.8696709773106746, 0.625207773412018, 0.42725809115666746, -1.3947603383957434, 0.15108268103518824, 0.6882975289381822, 2.1947821210859115, 1.2956336239552013, -0.15853558632328296, 0.1898450780952211, -0.07453362921385065, 0.6284810275228306, 0.3144576766804217, 0.6057245079510084, -2.1688909716214866, -2.1346188769471266, -0.11045511955139986, 0.03852737438977609, 1.220948194870921, 0.5254207759893784, 0.011402851705163307, -0.2040490300347687, -1.1779459167583495, -0.18164821528318584, -1.1290121964973172, -0.1981800946735307, -0.024297289529750885, 0.08485428457859646, -1.112505410466372, 0.4106829021647393, -1.1224837083119668, 0.6263529923166907, 0.8783487199007385, 0.6036515522516899, 0.6352336598967582, 1.021651949011855, 1.313469996594173, -0.32769830918496523, 0.40186360212435035, -0.07759404480785664, 0.44825866538606857, -1.661356222524198, -2.1618691854049374, -0.5079170071601535, -0.5600483651587773, 0.20135904132352392, -0.695662791323207, -0.05481736716462204, -0.6208698732320677, 0.47449497600897755, -1.0440798407962943, 0.8156400238308582, -1.4245971911114839, -1.9451888799998869, -1.551976797012902, -1.350885636175685, -0.5575563047438681, 0.7899051369521816, 1.000969248109876, 0.11146302189611233, 0.6571346342790584, 0.4193171090744604, 2.6164635721091196, 1.14670982284568, 2.2428897174332656, -0.0776790415416261, -1.1037089192504916, -1.2438422230239499, 0.8061489130672229, -1.8487688846792778, -0.3893606684322337, -1.1267111216432022, -0.5711947060591817, -0.06605718696643709, -0.17393480215602464, -0.033277989942166825, 0.8445444349765713, 1.6800648582670235, 0.9568095460300545, -0.287578842254275, -1.9871520738349149, -4.1568827306417395, -0.05369029052044658, -1.3021598396155247, -1.4191359044603626, -0.22747333258355684, -0.08932886511414334, -0.440262306272312, 1.1572620779153666, 1.692549384503641, 2.813145775963397, 1.9903531006519377, 0.1254005981520689, 1.4325110705264583, 0.8959793795136565, -1.3688913075356741, -0.9441941299850707, -0.5251495907833782, -0.781087409118218, 0.508893086441853, -0.5364079668659583, 1.0971289758707112, 0.32507806137515816, 2.7347236514879927, 1.615918908118725, 1.5104259449198, 2.296592364418469, 2.035414349164988, 0.6003224118533382, -1.9799528123923604, -0.9187036418637266, -0.9504728864882424, -1.654341040396788, -1.721952149441122, -1.6814625402386318, 0.03295416869127388, 0.08411441937933048, -0.4883546985136459, 2.3997045427190886, 2.689515103767949, 0.7005260905504691, 1.8216626954996047, -0.750342391913964, -1.8552019900017547, 0.23068391772121732, -1.2549661056101702, -1.2695345792562134, 0.8834353254092033, 3.3738643330608897, 2.9607715254973703, 2.246045630979373, 1.4315319782759333, 0.7354293228553642, 1.371173612445521, 0.41616702057027877, 2.5542950382012246, 0.7701826682292232, -0.3958704286222336, -0.5060455374069185, 0.1463181781603309, 0.3813032973928594, -2.5563485100484007, -1.692026633696675, -2.5944269799275785, -2.9645344035845906, -1.6136896491545465, -1.16801490094998, -0.6360416415657772, 0.14918185111906754, -0.4582558082299253, 0.26513897553377547, -0.029638903836991658, 1.1209443664230876, -0.8637724229411794, 0.7221188722592544, 0.43927581490381856, 1.0146250205668321, 1.4097741442047085, 0.31278307747669604, 0.4859988288078192, 0.08441077010053544, 0.8435028827935293, 0.16760603006053473, 2.140092999668572, 0.2235163304883121, -0.6459418470995587, -0.39564729375380414, 0.3247969482984301, 1.0225354369518782, 1.0061315805011186, 0.5112871980764729, 0.7057435277501928, -3.493127592817024, -2.540480442826712, -2.696737408681988, 0.9230153900424541, 2.5882715941139587, -0.7685794059415956, -0.7740515536183113, 0.08390309464656436, 2.332272215811871, -0.24978889788665296, 1.8600636700572941, 1.756214942505976, 0.5832738948665958, 2.117137808304972, 0.32943616956482136, 0.3795822846615729, 0.09663501790541294, 0.842773503260233, 0.12629129304324715, 1.372543634523572, 1.0920680510364786, 0.5070569076819977, 0.9123276885692362, -0.17042268254767878, 0.3847579308493795, 0.6718425506278859, 1.1621875133480244, 0.05135889212763934, 0.8801977523509118, -3.4657077542429158, -2.728496368896619, -2.28476596298072, 0.5296851479346986, 0.336337214842448, 0.21200821507879106, -0.2815197138121807, 0.5656914945643929, 1.0491967451929276, 0.5479068085885731, -1.5084233016032793, -0.689475504844731, -1.460365603463438, 1.9476694408002073, -1.050547798727428, 1.2880073944725812, -0.6064612041543965, -0.4494025678407984, 1.7321556603065587, 0.07543357453457879, 0.254236126910441, 0.5993226314345999, 0.7135692114985905, 0.2998202494208282, -0.2222735676693735, -0.6123485030443099, 0.4082484359062604, -0.7388680767301141, -2.1480914423490787, -1.2896544835597155, 0.249912840261764, 0.07988924844749976, 0.6057061899743802, 0.38670697654938235, 0.7600649978593501, -2.502647607949911, -1.5830451924357754, 0.0941099992247936, -1.2647387429323473, -2.5675641301965415, -2.0559058572999294, -0.3474607067507776, -0.05075923749423972, -0.22548006027645756, 1.1186657602240149, 0.8464753977040215, 1.0877521190105774, -0.3837400712668647, 0.988017934034442, 0.7300284405344656, 0.48827523490515623, 0.3825739161867528, 0.4308142925356871, -0.39884934836997105, 0.4603404631221055, -1.1454399652049714, 0.9659432734797623, -0.7801119845852428, -0.12552205694663182, -0.8809769533650257, 1.0164864172985404, -0.6746063090069043, 0.47449597512780617, 0.12345884056649797, -0.8779315242875895, -0.3956048952938674, -2.5030428568997993, -2.1404175113716164, -1.0021554695988382, -0.4061655625955322, -0.1013023498913429, -0.34201938199924725, 0.972090784653079, -0.5180703643069186, -1.020058455098794, 1.4539775507024117, 0.41319745500074845, -0.7276894389709553, 0.9284449133421574, -0.9729077909644023, 0.5584750635231446, 0.22788036751865434, -1.8684650720968905, -0.6203850309403507, -0.19476486088275863, -1.785476454498998, -0.7627391428983824, 0.05769750339283486, -0.7874176931500767, -1.313116771148345, -0.35275881517100405, -0.3186064207809182, -0.8774835200390646, 1.1063783281173143, 1.2244848882515127, 0.33640586580202003, -1.9797006928712484, -0.003099238069911806, -2.2453581492757024, 0.4347995564380552, 0.7357010188018469, 1.1346968985796535, -0.7687099089004161, 1.4011436055551085, 0.3618070263466085, 0.6750736097445368, -0.699973602228492, 0.289266923976118, -0.7478826570878908, -1.3895682191370282, 0.39365441796446965, -0.09853174734224901, -0.03393425227607936, 2.5331845345982624, -0.6264218317645612, -1.4424833649310278, -0.077154519876675, -0.48246542270454634, -0.2582702803714685, 0.1971217013802799, -0.4697118178672732, 0.01020818550640594, 0.4196713523687603, 1.5566600005808091, 0.13482712638774294, -1.7992459081940888, 0.4048910939990291, -0.42728782391885833, -0.5613080347280437, 0.7966600278224325, -0.3945311530107127, 1.272288172797609, 1.4056422428927318, -0.9959029743633286, -0.8879365748704596, -1.887502809755219, -1.498943628446215, 0.17953497560788004, 0.8071105691127878, -1.4578988144825875, 0.9544221768168495, 1.0218212318441777, 0.4580413022568638, -0.02501667583297264, -0.5062519319775944, 2.1187379438986755, -0.3685352057479864, -1.3803405861526634, -0.061381106228354854, -0.6235202986162026, 1.231601791500911, 0.06764796716475355, 0.0004815145640817845, 1.25504232018106, 0.36000337161242935, -0.9627167080884935, -0.08396456355696831, -0.12906984233202093, -0.6707235670937333, -0.5618157405326231, 0.60993505113989, -0.4088301037375416, 0.15339101138805494, 0.6298308490123881, -0.48523523786082945, 1.0880496341539625, -1.6486304704879877, -0.5477744501104133, 0.47411663746493427, -2.1759140714532204, -1.3800094373416614, -0.726937753365796, 0.44139396097461, 0.8459114767295275, 2.3497140813190986, -0.4958014202360809, -0.7238693002410022, -0.029295122048958185, -0.10168541455220406, -2.1442230678160827, 0.009916462245319533, -0.4961430347804031, -1.460447488405145, -1.0957954045694476, 0.5107694957398335, -0.5602891052574853, 0.3070485522366334, 0.3807618329594629, 0.7465065154075662, 0.23176067934932312, -0.6302790306109434, 0.7044326854600172, -1.9621020743954178, 1.0751568516660772, 0.4771755567752149, 0.8377543373781187, -0.7427355432824622, -0.13935002116735287, -0.15269757033127554, -0.924105153466885, -1.2318605833238143, 0.054428727486208195, -1.1261989606298428, 0.07859296895012524, -0.49353796386839255, 1.7318337301034088, -0.8152771109446675, -0.10542061417870226, 0.47696776987237655, 0.4647136308513945, 1.2128824458796845, -0.03261861109242348, 0.37663494115998114, -0.7962142887502844, -0.2542257841544848, 0.3897959149265709, 0.5686640866166566, 1.2311536337830966, 0.7566975283963778, -1.2844625657219704, 0.04006995813357402, -1.3468372701830862, 0.2716697657742605, 1.075597194329876, -1.5920156458571748, -0.11474838005633288, -1.4873635856028393, -0.24787595044842534, -0.650312963620796, -0.5860073890422315, -1.7032149990049796, 0.5841563338976022, -0.3064747674611564, -0.6815676302413113, -0.7970545999336694, 0.2597029538234747, -1.5831072155173904, -1.2495644518847222, -0.6800704568777955, -0.3207948315171512, 0.46643585833712575, -0.9151669360602804, 0.1963637837315807, 1.0639791167695178, 0.610444315801066, 0.361364197735311, 1.2527350410425058, -0.3562756886616157, -0.4657494563083259, 0.19099470648099146, -0.6527402248769746, 2.1398005943817626, -0.04506495361779439, 0.23566305557870337, 0.06760533502435642, -0.10946895008611426, 0.15188973289292995, 0.46902257218726173, -0.7750977854047593, -0.024224395501855244, -1.6564144323028076, 0.9849464592376501, 0.7341000363345275, -0.43438221581446246, 0.48771185296593694, -0.7481294714006719, 0.3481281383403195, 0.9011954143012879, -0.9106831365470748, -0.2487280828419676, 0.19445508140120876, -0.9433540261069556, 0.16469201411998727, 0.35206759971245244, 1.8671193984905572, -0.362702939547079, 1.9324483631082536, 0.8200617524839234, -1.643033183429899, -0.6252392651299156, 0.8459951763978569, -0.8904405739417376, 1.5279473363730278, 0.8344774901504188, -0.0717633497191512, -0.7260551231428348, 0.17775698380390526, -0.027133142495047845, -1.2590458619614853, -0.983728531490585, -1.2509819131262327, -0.6770579678688682, -0.14623065043410272, -0.3339350690623391, -0.3232382452329129, 0.43126086461107677, -0.813757521966999, 0.012507195696368172, -0.48899921035408395, 0.17486700452206452, 0.6339194054256007, 1.1359033052865404, 0.027116604365925834, 0.8070975917753924, 2.078513325374133, 1.7902740310919862, 0.7380139191281818, 0.226858057796009, 2.061541937798232, 1.4409122961886554, -1.4232476010562882, -0.8598024919820336, 0.23531220313605716, -0.43828756184091283, 1.0667284489559248, -0.8597353714042568, 1.2378619687216537, -0.5822752741445105, -0.18728206417559343, 0.15956852321289527, -0.21385363525121182, -1.0894621339025308, -0.6262043293441866, 0.9456507486864306, -1.0133480610125314, -0.06031362464155946, 0.250400425099949, 0.7674926854912947, -0.29499715126506987, 0.22646827092100644, 1.354244618899236, -1.0160113080720268, 0.20006029128931305, -0.2708905516266074, 0.30100562431850697, -0.34497966222967097, -2.2875182568081422, -0.6986667218214593, -0.009764432322551243, 1.2598200267906312, 1.0526979052834795, -0.20392561792324287, -2.5146306946788752, 0.8070090515421381, 1.956214551287174, -1.5410708156267934, -0.4096957483423211, 2.0032722421897025, 0.529781068190266, -0.2506103630870436, 0.08455057580960847, 0.676002620792548, 0.8925147218057043, -1.1661177766766386, -1.1671650805727312, 1.2030066861114463, 1.0775013723241325, 0.3487880485595397, -1.6004321095599197, 0.019680244077307656, -0.14383664702663448, 0.3275741292193776, 1.0152425735115138, -0.877263514600207, -0.2351538780042264, -1.8901684991326122, 0.7194671331151853, 0.5936941466333867, 1.2858670106431436, 1.0274156773576535, -0.34695208824414825, -0.5061381463867015, 0.042466495484210824, -1.1359983006505925, -1.1018411179155843, -0.14521859861895905, -1.7374712126329441, 0.9198824804438306, 1.547241493100414, 1.5929325145795876, -0.39470505029524705, 3.002198041362916, 1.7415504258468442, 2.346165667943549, 0.6106456638451787, 0.8725870461040127, 0.24087537366298373, -0.2809941873409454, 0.0720116608473702, 0.15901056330075028, 0.7043600481032629, -0.38504990653392235, -1.5400338620655873, 0.6575541659478304, -0.8220223549586194, -1.1142600080750253, -1.8822770697720634], [-0.9002219373830654, -1.24614467701826, 0.3325359313035062, -1.9015707912915352, -1.9443886702405204, -0.9786380091219767, -1.1925997285850154, -1.2548154666893405, 0.5480038569479084, 0.26790481164626656, 0.30015676166735716, -0.3547927602634336, -0.9343900340759095, 1.1762635661341692, -1.3804404362190243, 0.5742015731518175, -0.9468226984014749, -0.8957138445166417, -0.06021178549845274, 0.7105716380694465, 0.09157143952841322, 0.2604199829982429, 1.2069686299995215, -0.2763657431051984, 0.14027637238977608, 0.7731413179188129, -1.508968834481321, -2.001647400379754, 1.527434730697303, 2.4107516466741035, 1.0108413036633521, 0.484806216698041, 1.1763902417184406, -1.1993120909045631, 1.8020146065541562, 1.5055993802310146, -0.3668054989955127, -0.22562635335607284, -0.6295378728718882, -1.2666881045156413, 0.3853521478381666, 1.2840358335322384, -1.4543959581012988, 0.34409459941955506, -0.3129455754684448, -0.35807663423710767, 0.8378267023141055, -0.6500959180712791, -0.13172976977767845, 0.31557725672548614, 0.4073359438835695, 0.6060234281441267, -0.7845563941670326, -0.1638157440690426, 0.3077093029178356, -0.789202166387077, -0.4504618145480176, -0.37066785347973863, -0.2897890993062278, 0.29639073221409196, 2.0751494927412777, 0.3517174245991369, 1.562253631317711, 0.013293791925940832, 0.1983705760108834, -0.4936531584934573, -1.3569485042288627, -1.4924900807998744, 1.257545353629055, -0.4717022368883968, 1.6319996883625285, 0.5321470085456187, 0.07504615910433345, 0.897154118103546, -0.2488151514072507, 0.05701890614117045, 0.9023337588632603, 0.14829282196341598, 0.3232779159607301, -1.735698430185867, 0.4798648574525656, 0.44018992126720896, -0.419315798821589, -0.6812294476059235, 0.9099747937412876, -1.3915582005580172, 1.5207172195759826, 1.6483954181443394, 1.239716420002593, 0.7182775584054591, 1.047450825538256, 0.08623132133929735, 0.31676015641882915, -0.5043131367526958, -2.0964801312173935, 1.6172431497614048, -1.0863558968421312, 0.9378779148773457, 1.3470158256658182, -0.5535518986290179, -0.2374974553437686, 2.836336022839701, 0.7407986427584569, -1.4469393954443677, 0.49283197252388683, 0.30029001469956956, 1.076433700303949, 1.7619440889179732, 0.6371708076954635, 1.9058645424022627, -1.5703989703335617, 0.6058344264893551, 0.46308305620798706, 1.0071442021044257, -1.408220108678359, -0.6358660871180365, -0.6951570457329415, -0.8849348560813011, -0.6418888268462838, -0.11822100946646186, 1.8199863825377725, 0.8116780802893816, 0.8039999725326077, -0.40170572831379436, 0.779790195172751, 1.3899734666597299, 1.2963333006988407, 0.26897481980755183, 1.2358683767206284, 0.16380484428704029, 1.4097327536113928, -0.4163115979427803, 0.12515935925468114, 0.8679354076250999, -0.4085193673961667, 0.37593187768602404, 1.2779048352936955, 0.04311944376411831, -2.019801240575094, 0.40935618034403815, 0.05556273786516711, 1.0174601193207728, 0.8749242764272533, -0.09519455679715884, -0.7694351997978313, 0.3487170290817623, 0.4379037887036307, -1.0591286467517924, 1.0579494504940112, -0.894095647927228, 1.5179398526212815, 1.2942063846549452, 2.1593458627010063, -0.15658773635026055, -0.7348178758421392, -0.606301631510934, -0.3959286082453724, 1.8504175953834436, 0.43418388294645693, -0.12850876256149985, 0.6533376186876223, 0.5808229949706732, -0.3084903258571891, 0.6455727184461645, 0.8800827754738976, 0.9332097465735544, -0.7050711193125266, -0.6315722591828843, -0.5527705690547416, 0.5868199759956559, -0.9605593930332758, -0.43091120214440376, -0.9084640791299435, -0.33120611873271627, -0.17594165659906008, 0.5866079045978452, 1.3544397633194338, 1.2709136232471874, -1.0555274583128524, 1.5342162060286066, -0.09937176216727121, -0.4569646506150715, 2.0136454156623143, 0.13784841018218827, 0.6129678059056941, 0.1712702135100354, 0.37513922084699186, 0.08247749209188514, -1.2264923834865666, -0.18720323650872933, 0.5355730173974325, -1.2394792642144505, -0.03211616523865828, -0.8370153290264055, 0.5105355936921512, 0.7794611832506789, 0.2451737343803685, -0.43833048668361624, -0.7193818555678001, 0.7828801695172478, 0.37630566382854197, 1.7593111018083012, 0.4674763161100958, -0.6145752178205991, 1.5088470806807919, 2.26913162459071, -0.6176483036685407, -0.23404603674229993, 0.7041864752971456, 0.4222500443496605, 0.44105816391590047, -1.0012547765996658, 0.4424037007879136, -0.6435634722516425, 0.130668928842802, 0.9062683543641671, -0.036806530343857634, -0.95727686611919, -0.4387156948557812, -0.25160204622578297, -2.475872618292015, 0.5053509287193542, -0.0285686434697729, 0.17486426530906216, -1.7864628192198546, -0.7858115094580335, -0.564704896017379, 0.9058763269698393, 0.8124203401304156, 1.6031243677650162, 1.5888725530979972, 0.9006815564105787, 0.7715756197194594, 0.9318604296560197, 0.09995131680297711, -0.48160317765475996, -0.45644703184236374, -0.2905460276977009, -1.4067256835024944, -0.2040710539908519, 1.0338418906629643, 0.3280733706279752, -0.5367645161197522, -1.0081234954119316, 0.7768448485364192, -0.8736351822629147, -0.4587377836749355, 0.24846758342293826, -1.3463365082228558, -1.0037783337199504, -0.8501103755955258, 1.1970629198947564, 0.8917236339470527, -2.2667107067460077, -1.2214095456218421, 1.5234447635903177, 0.5279222355515563, -0.8558975022023276, 1.6267221337726112, -1.6720267845181394, 0.9179827020315373, -0.32853277632857586, 0.35821297713667716, 1.209673898672552, -1.7763121017349304, -2.047396218079529, 0.02365714983330222, -0.9940920372025416, -0.20709001664348076, 0.3271381492681738, -0.6060196609917294, -1.0141056125473937, -0.013840652646557393, -0.6643637712957859, 0.4508192356437027, -1.3177979526322003, -1.8497165130588973, -1.541034803729973, -0.7506826148836401, 1.4909015462031299, -1.4158781470624577, 0.7662600966007423, -0.6450369118300258, 1.3442971702309772, 0.01015917350609159, -0.023604554515652396, 1.4359741682345248, 0.628454017427919, 0.30866554568391835, -0.0005486329431304373, -1.372285113981744, -0.1644158310395003, -0.4026323878516652, -0.0016104063379548679, -2.023530954549947, -0.35772465540765586, -0.34055308476459256, 0.47021431342718883, -0.3372936671760916, -0.2399973646048565, -0.961227818005315, -1.744198233660767, 1.692548594880336, -1.4126573242706906, -1.3648038126201933, -1.8675691591262635, -0.7893530660544378, -0.11419736696662941, -0.18116700024454416, -0.6624744891422938, -0.8649476594948551, -0.7746736244192115, 0.7041881675006106, 0.20777170952644033, -0.4695894747598815, -0.30360754806455387, 0.5785746885119651, 0.5832860674677848, -0.21762457332986418, -0.23485353606020587, 0.5240104473455094, 0.022618138691130545, -0.14915962744460634, 0.8559955277174018, 1.0993507332273984, 2.564323443041905, 2.9260180312062705, 0.3652756938580276, 0.6249458828244169, 2.2653706225247117, 0.5766436663712124, 0.6513133388449291, 1.2678198693116522, 0.1531077300398118, 1.671520231394175, 0.6438573200897699, -0.9655932181941226, 0.6876651163361824, 0.3129302212732226, 0.9179396300706043, -1.9478957280473501, 0.6258244093851832, 2.543515497400669, 0.3321758137233123, -1.9133529685942763, -0.23569310163621426, 0.8562967963456968, 0.5876455635340623, -0.7280818430001664, 0.6883898288207501, -0.019656789683531063, 0.6282273126450568, 1.5506849676540704, 2.643830642682438, 4.440859765268236, 3.60573020513828, 3.230004433777213, 2.273219670858282, 0.9208284964874218, 4.827400091056607, 2.0034163229190396, 0.23392359306816568, 1.100121760531051, -1.748517453154063, -1.0748951680743168, 0.5120847735058955, -0.5554169290076262, -0.757278476144102, -1.4912483306546258, -0.24430006489686013, 1.7741189539145374, 2.112714524550415, -0.35474910980549845, 1.0463110662829576, -1.2942062617545276, 0.047274119920960006, 0.7239082664577324, -0.1451529405452722, 0.1969309830901804, 0.04672055416392876, 0.7436712220997628, -0.81720970349263, 2.346894602293437, 0.8248243154458156, 1.2553411503672274, 2.4812815548335196, 1.1330160109918963, 2.5516727273254345, 1.6942159145793942, 0.7840250638505483, 1.7826878448855097, -1.3916123593517573, -1.560760329510254, -1.320704726557313, -0.88202785121258, 0.25309793257368396, 0.5703677257033012, 0.006564961194217272, -0.5240720979192092, 1.6901988066061904, 0.207178347184468, 0.025275026856619684, 0.3976584136974312, 1.203198633915273, -0.4705353132191869, -0.14680143487453337, -0.8046037412590208, 0.05147650332168936, -0.3734869828723651, -0.49941204558955943, 0.6816487528361754, 1.1067847242450513, 1.64656430384811, 0.6798409348712443, 0.8275124660399927, 0.9986888373567301, 2.3160789371720227, -0.4204617631244301, -0.6529003146392414, 0.28042631045638594, 1.3189119259740436, 0.053324355576943455, 1.5111832225586759, 2.542802448714921, -0.5470566588221498, -0.08367182234733976, -0.19310723320220266, 0.05670726339461519, -0.7509901652546411, 0.4629024691267787, -0.7878632640636303, 1.2774731118698206, -0.6646231501437424, 1.1654823658978588, 0.6793856419300189, -0.5423332434457926, -0.40729445680104437, 0.4281745658396778, -1.1822529112508795, 1.9904648199130248, 1.5614969149363576, 0.9543251610834549, -0.004515077742245705, -0.06964665554617258, -1.3972653508003796, -0.6593954307866853, -0.17471005638642037, 1.5684522833320331, -1.1398935494002382, 1.2126421180716942, 0.7498538371850905, 1.586446938635255, -2.5950969799607653, -0.3301914085349042, 0.20424407455552884, -0.21443793912177453, -0.5219999450629715, -0.014351587100086702, 1.0817826545494484, -0.5357774963098947, 0.2971018691531724, -0.5773327157464352, -2.0525139496461455, 0.006976908969279047, 0.5084591548775984, -0.060830593398833635, -0.5898285045998405, 0.3407196860095529, 0.9486873892075691, 0.6204239972371359, 2.0002417723769286, 0.3913950374907384, 0.39454577684966713, -2.3882591972257217, 0.015667379225365048, -0.0892869979952923, 0.20581855739793, 1.0834273929362386, -0.2265514859361445, 0.22603726737962945, -0.8757822810663495, 1.046413479822775, -1.3494924238899684, -0.7194349972046903, 0.8371891197861543, 0.4330145810356803, -0.7250564511635855, -0.8667337818392563, -1.1498088117895686, 0.785576208866507, -0.3684581685236711, -0.7765756492102963, 0.11409045443569155, -1.9354201333833023, 0.3157016901833987, 0.6577508039642564, 0.8962652000330904, 1.2139948044074926, 0.9112825573517752, 0.3138823198243864, -0.3761351137066552, -0.7091564515651518, -2.1622808032709258, 1.2482154676166877, 0.8593740766661461, 0.3091415229917897, -0.684954653164992, 0.006526400905123327, -1.0973855100455212, -2.2550626497393504, -1.8049038085376987, 1.429515296678794, 0.20122050518387707, 1.8242585608374313, 0.9196611638448615, 2.088886603265105, -0.32752842897229395, -0.8656119427549201, -1.445006373768803, -0.5881224899359774, -0.16193115709705758, 1.016279426781936, -0.543728547400622, 0.11632556407774222, 1.7006254801733482, -1.0422762965532602, -0.3454674939240043, -0.4523083562813516, 1.2342147517987079, -0.02236157033688134, -1.4994996056112566, 1.0566645008977815, -0.4167213852187451, -2.0172685981792253, 0.29834811869596106, -0.6528241910812078, 0.11004894178398618, -0.6888542552190957, 0.05966925782750776, -1.7079392838406775, -0.3033746821015671, 0.04349088511373535, 0.3829969153738054, 0.16358111815382803, 0.4613027369651081, -0.08372742574424716, -1.0498392197931095, 0.20622769546365557, 0.32046169670898006, 0.23129028929019524, 0.8301159900648873, -0.8425910010401142, -1.4886902745276296, -0.9886927834467667, 1.3399254129780187, -1.1342384930604166, -1.1016321756315584, 0.007970901757217645, -0.1769514061267755, -0.4452248704033569, -0.3735869663702029, 1.3075970929631562, 0.5043727263898097, 0.2059663806730514, -1.2754526780747295, -0.7801538014118121, -0.33880208952363033, -0.0879118986045677, -1.7849423148248014, 0.8689463945790445, 0.4363757629499322, 1.2429864362039686, 0.6342303597292424, -0.12193575255380763, -0.8627307275097366, -0.17663955246454266, -0.6586002314831271, -1.6420999153225657, 1.588139057665931, -0.16652537981127638, 0.7001450753132541, 1.3680761140823652, -1.2360928143213723, 0.030091771305645432, 0.11390610144436789, 0.34475584001752385, 0.7899312478049576, -0.09441654293244808, -0.6890225225120982, -0.8201599420653548, -0.5845967032455581, 1.58865073275463, -0.8516803887185936, 1.6926352523081671, 0.012330557021947365, 0.6908354557631868, 0.27850161109355, -0.1841950417548767, 0.6102350265691114, 0.5766694982845395, -0.5982228101489175, 0.7793825065893315, -0.1952416736658377, 0.5582775549526259, 1.3893664631692988, 1.0032621727692206, -0.905781090210453, 0.295882679893024, -0.0634024370725485, 0.5088348339221614, 0.0610334227596914, 0.30669061545038695, -0.848394355749991, 0.3020521205558032, 1.0470498894892855, 0.2680617240697115, 2.353665022644272, -0.7614856229229394, -0.05352676981272308, 0.940263065520743, 2.0071651089874165, -1.1227910651092208, -0.7948920306922143, 0.875504434583829, 0.7134956863832232, -1.2227805669562657, 0.8237890230430176, 0.004286424010344833, -0.27205071104400946, 0.4911505028370862, 0.8384553572678517, -0.9185546987119989, -0.3832548428790429, -0.4561816802060961, -1.437744727991266, 0.5385131975035995, -0.6529826231718512, -0.11131343487709736, -0.6107626534519798, 0.27896151418930126, -0.621518509929954, 0.37527507691417306, 2.9853012861611834, 0.895496799376497, 1.3886338599954589, 0.8007885211410606, 1.0764102836067941, -0.561426886486759, -1.0509342688152343, 0.9343875444888153, 0.5916816240722615, 1.2568046028660151, -0.9497275912079823, 0.37662166321963, -1.3346144995152684, 0.6734207755545993, -0.2609401892035927, 1.62640575632788, -1.3246743020015317, -0.4810779091532214, 0.3231734437486293, 0.5367477306160424, -0.6467661178665874, -0.23750730567046424, 0.03483413831548058, 1.806865806817052, -0.740845990578382, -0.21643874408771288, 0.938930276404914, 0.1816287441945851, 0.10751688413526155, 0.3836832718230966, 0.9182900916664783, -0.5306060901048244, -1.2055489017489178, -0.8060123591598788, 0.05018518494742359, -0.6610793752829062, -0.07430440767103237, -0.19556453289760478, 1.0141134579646551, -1.0217431813387525, 1.712101834954268, -0.3733289474429449, 0.24921724748577362, 1.13997900196261, 0.21278849068758282, 0.6575982479736766, 0.2855018452235531, 0.11730234186615346, 0.29193513427330603, 1.3211559702170588, 0.6763040280193687, 0.6750495833938798, -1.3063050247764871, -1.1763805206515023, 1.0290171151814655, -1.6738536925040546, -0.17885565323569452, -2.053856668214081, 0.2743584196367857, 0.12575729673280572, 0.13959621569785624, -0.2866378345770394, 0.14423592129218205, 0.29417316282692446, 2.124735368445653, -0.9044821026569287, 0.268632531114108, 0.7595477130127921, -0.23555240126247998, 0.6979944241854629, 0.7160440500494457, -0.7428971187408112, 1.2418313323063785, -0.14505261520450838, 0.1956091075227213, -0.13764616848084987, -0.4007561861297504, 0.25254559865597337, 0.8190350108479298, 0.15070910890025094, -1.0479689511558807, -0.38870427227849624, 0.5913993424648479, 0.7505764454325015, -0.22260105286157209, 2.5407487693736064, -1.0962241583743533, 0.8046731736682283, 0.18462373356092787, 0.17295961549215852, 0.5262071361578717, -0.13110509940387155, 0.298990802141619, -0.5454608928677751, 0.6504289458476448, -0.11938875557697826, 0.7532048825934874, -0.4672506328121587, 2.15413073048465, 0.23484897896468535, 0.4930695760984705, 0.89057553352903, -0.8099886840436835, 1.0726024520793584, 1.2257179481541562, 0.3258745920895961, 0.9036762408998908, 0.7722072362173182, 0.26227308630859486, 1.1794745864778475, 0.19132585558008017, -0.036920175737107215, -0.3068777359861744, -0.23132678436836848, -2.8259070260019907, -1.2015145474582585, 1.024066721585877, 0.9107703269370608, 0.9718856006092988, 1.815021480323927, -0.0899712992851976, -1.5062702837835142, 1.0975889598370285, 1.0619148912217065, -0.8539638390569255, 0.4284394944589393, 0.5258646007041402, -0.19267132450132582, -0.2861933117555839, -0.31436517760441773, -0.3214939155536453, -0.08682839976245237, 0.13349189920831428, 1.6429530097173337, -0.8531895237566552, -0.24067408043973024, 0.8322538817859273, -0.47829474365591057, -0.4816619797408281, 1.351087468668201, 1.8179479536451189, 0.055653799957487295], [-0.04555025360785949, 0.8395753302853989, 0.1897269101553825, -0.07891195773330988, 1.2150460399893923, -0.7465643236610497, -0.9802409119657884, -1.2004486478697087, 0.781654241629463, 0.7482445574372368, 0.8547983216715832, 0.399815462715316, -1.6524498221716462, -1.0418441502730202, -0.23598628511671654, -0.7496149990908256, -0.7301176173261095, -0.3412231388107585, 1.0185440170914617, 1.3073594254536074, -0.41374153776678313, -0.8039419876325685, -0.49891350260787803, -1.6616711276108311, -1.5280097715529868, -0.15487941499577312, 0.062395668331981964, -0.08782879518459501, -0.6029746816139177, 1.147492499453049, 0.40881345556206494, -1.9173963023574028, 0.04395920720012734, -0.35208680641011497, 0.9225952344816739, -0.3629746588665938, -0.7363366287176533, 0.08366604894783085, -0.037975696368508206, -0.6516962481232044, 0.09656463760016504, -1.495437389354299, -1.6860236508352957, 0.12247625860567771, -0.12252062839128094, 1.2872201873850067, -0.80989077672761, -1.4348787607614772, 0.7483578197874645, 0.8699441157368393, 1.1654630917317075, 0.48776925929313497, -1.9415706041805882, -1.1223213010911073, 0.15107550649177506, 0.7465268971646787, -1.817199042051081, -0.7849823278901917, 0.376999546568822, 1.380188113112767, -1.506560041101199, -1.30709186833819, 1.0522841169684425, -0.7820851372132458, -0.6085923972302476, -0.3839174431712939, -0.023470281954213187, -0.30869502643175295, -1.479764488625067, 1.1073924189595985, -0.38822997883179594, -0.43242429006184246, -1.001863165581022, -0.27507586925591787, 0.894597739412959, 0.9842863844743056, -0.47103819080799264, -0.8956171796373432, -0.9397857718653124, -0.6518343266777411, -0.477797964614679, -0.2622543572710644, -0.24804055296661334, -0.3110624172435264, 0.289942968245809, 1.2022262980855307, 0.7246961778702373, 1.135973861428922, -0.21794188144409435, -0.44442503717437004, -0.1220631666794956, 0.5091646507302541, 1.1979608601859688, -0.6212975203524843, -0.6553428433176633, -0.8680806577332443, 0.8127667604319556, 0.3921892925789302, 1.0558810155898382, -1.7384358942406464, 1.1981620271758746, 0.5094766053459836, 0.8809621634983588, 0.685667679362909, 1.1242462545898866, 2.1209696411584296, -0.45386579676471195, 0.33471447272752214, 1.084677612922432, -0.5930384104564634, 0.699850783588074, -2.1330751423998073, 0.8083030398325891, -0.574898525037472, -0.9324586529267264, -0.8347073489923708, 1.5718500317576374, -0.37277911389029783, -0.3944438055762408, -0.23113354983118037, 0.15500092995483322, -1.767601871655419, -0.9131531266049316, 2.4869815189207123, 0.19469892844155132, -1.2975264953966132, 0.7848242557917191, -1.3533365593408033, -0.07520338539736654, 0.9331409483641026, 0.3040784198837167, -1.0656381831228092, 0.010995616204004171, -0.641546731743269, -1.0974176805378826, -0.588136887781649, -0.6705373896459295, 1.321428579779855, 0.29452618489698984, -1.324637972143598, 0.6884702441180663, -0.3917985490560016, -0.21876152900573628, -0.9806364140547853, -0.32035591961564946, 1.0487479703026559, 0.3724170629426814, 0.2670023754112445, 